the 0.353391 -0.845474 -0.502028 -0.313004 0.842491 0.659198 0.393381 -0.453729 0.207723 -0.040567 -0.415870 -0.949092 0.174615 0.188009 0.256725 -0.978704 -1.437366 0.569588 0.461446 -1.226796 -1.845572 0.110754 0.618869 -1.376138 0.654240 0.476322 0.864507 1.113049 1.738714 -0.008379 -1.024193 -1.557794 -0.217458 0.739841 0.488677 -1.658066 -0.915329 0.015279 1.211880 -0.724528 0.914977 1.009071 -0.103347 0.241451 -0.469352 -1.631642 -0.110622 0.322565 0.677596 -0.202080
and 0.879164 -0.451795 -0.649364 -0.651842 -0.185833 0.094871 0.478820 0.097359 0.447308 0.879296 0.577925 -0.105607 0.145945 0.410591 0.346914 -0.157572 -0.172868 -0.113455 1.213188 -0.272245 -0.231650 -0.916366 1.004481 -1.257426 0.404016 0.172389 -0.136606 -1.293859 0.961275 1.336073 0.187919 -0.837042 -1.657754 0.816901 0.202228 -1.850795 -1.191950 1.633734 0.238840 -0.424757 0.029471 1.180124 1.349791 -1.306933 -0.418346 -2.255900 -1.350786 -0.041440 -0.398743 0.317476
a 0.823712 0.682142 -0.282907 -0.564636 0.555306 -0.966759 0.296558 0.325733 -0.246660 0.305056 0.188204 1.533058 1.157168 -0.119954 -0.685537 -1.287027 0.097228 -0.960695 0.289374 0.545221 -0.135230 0.034716 0.272010 0.252217 1.455831 -0.066063 0.499817 1.273500 0.115297 0.200906 -1.330538 -1.996390 -0.458454 -0.118394 -0.913268 -1.050186 -1.843503 0.549944 1.315209 0.211160 -1.638148 1.441470 -0.505551 0.385746 0.576585 -2.018405 -2.736877 0.479123 -0.389161 -0.420461
of 0.336604 -0.693672 -0.946269 -1.939449 -0.593913 -0.700576 0.819017 0.182117 -0.088877 -0.668403 -0.114184 -0.491394 -0.548146 -0.993215 0.182932 -1.002976 -2.036429 1.345557 0.066304 -0.497698 -0.426958 -0.704059 0.075178 -0.155324 0.542255 0.190746 0.520176 0.198164 1.800891 0.787960 -0.740839 -0.753142 -1.193831 0.458426 -1.347081 -0.762960 -0.478979 0.097796 1.424532 -0.092135 0.410532 0.906878 1.230785 0.811604 0.547463 -1.396675 -1.275120 -0.716217 0.132679 -1.485679
to 0.095884 -0.844455 0.163798 -0.039327 0.806008 1.382240 0.718703 -0.679529 -1.122522 -0.088658 -0.017135 -0.545784 1.188774 0.018143 0.355254 -0.189393 -2.093880 -0.690458 0.081126 -1.626596 1.021195 -0.311694 1.133828 -0.907074 1.412451 -0.753574 0.240788 0.782903 0.330221 1.744145 -0.811417 0.033600 0.071209 0.406955 -0.632252 -1.953449 0.442772 1.353254 2.177150 0.720465 -1.083793 0.797754 -0.782377 0.374343 0.762329 -1.698968 -0.696711 0.853864 -1.502875 1.011623
is 0.851496 -0.923354 -0.816846 -0.128868 0.454236 -0.449727 1.317918 -1.301117 -0.973053 0.386296 1.053725 0.405846 -0.186494 0.241348 0.695370 -0.135172 -0.595734 -0.684425 2.035177 -0.995180 0.572134 -0.029107 0.365526 -0.446600 0.808195 0.297910 0.890397 0.137602 0.527884 0.270694 -1.599497 -0.636695 -1.771018 -0.318614 -0.833732 -1.179475 -1.729429 -0.014397 0.571133 -0.582662 -0.222515 -0.304804 -0.891493 0.345809 -0.047515 -0.694063 -0.774150 0.777339 -0.144954 -0.414484
in 1.286189 -0.205564 -0.057788 0.529655 0.080811 1.469688 0.191334 0.448019 0.490053 -0.703124 0.163979 0.011513 -0.130747 -0.840369 -1.079024 -0.376529 -0.821173 0.246212 0.603050 -1.091854 0.518355 0.918568 0.823666 -1.229891 1.299636 0.548834 0.388996 1.231067 1.148856 0.289936 -0.690336 -0.249089 -1.591302 -0.587222 -0.393273 1.417459 -1.074843 -0.478068 1.678401 -0.722538 -0.524234 1.099850 -0.277395 -0.966825 -0.955314 -2.357724 -1.060845 0.777988 -0.788571 -0.602448
it 0.578601 -1.071631 -0.528130 -0.960842 -0.295290 -0.317868 0.213546 -0.498492 -0.193215 0.030428 -0.869827 0.864627 0.066306 0.034536 0.562684 0.425877 -0.289009 -0.079921 0.241022 -0.650047 -0.270702 -0.674235 -0.803524 -1.400980 0.970350 -0.406152 1.191952 -0.672012 0.703609 1.153073 -0.333842 -0.660424 -0.397735 0.061968 0.255066 -0.306943 -1.445275 0.572055 2.190825 -1.005717 -0.037419 -0.128842 -1.133477 -0.734478 -0.085088 -2.269323 -1.053937 -0.642557 0.004709 0.080770
that 0.460872 -0.507293 -0.819859 -0.265087 0.880052 0.776588 0.499427 -0.152287 0.182553 -0.356138 -0.657661 0.782164 -0.529710 -1.523606 0.473984 -1.254638 -0.722023 0.251010 0.872072 -0.008189 -0.532471 -0.765762 -0.038705 -0.808182 -0.055070 -0.390623 0.986620 -0.277460 0.971180 1.503715 -0.480855 -0.735924 -0.136543 0.024119 -0.343861 -0.837120 -1.169190 -0.274657 1.146595 0.293032 0.470926 -0.259494 -0.699914 0.092069 -0.324635 -1.478737 -0.985507 0.559148 -0.640305 -0.088091
i 1.041260 -0.076999 0.030438 -1.423670 -0.741680 0.077691 0.250625 0.037379 -0.909850 0.904217 -0.759511 -0.333228 -0.274558 -2.498105 -0.086243 -0.229237 0.074095 0.619795 -0.047511 -0.297671 0.141743 0.622723 0.123696 -1.453243 0.161044 -0.969292 1.637038 -1.100875 1.378131 0.671566 0.410591 -0.617189 -0.003310 1.594079 -0.374342 -0.124566 -1.960804 0.641852 1.027024 -0.615051 0.288418 0.962208 -1.176763 -0.703474 0.145658 -1.518719 -1.215490 0.569243 -0.517464 0.196556
this 1.016891 -0.377784 -0.138961 -0.556229 -0.015228 0.503380 0.232401 -0.126232 0.057988 0.223593 -0.786683 0.495195 -0.520590 -0.747919 0.900125 -0.623844 -1.003000 0.074964 0.563168 -0.297661 0.792179 -0.104748 -0.071789 -1.235202 1.360755 0.005644 1.410801 -0.298393 0.517402 0.319205 -0.170870 -0.905159 -0.609568 0.055812 0.053037 0.253161 -1.780034 -0.742840 1.409424 -0.573528 0.312762 1.010680 -0.903710 -0.523640 0.654924 -1.568932 -1.198358 0.533501 0.169515 0.025933
as 0.089278 -0.641108 0.235288 0.070059 -0.356382 -1.110680 -0.553364 -0.072236 -0.135320 -0.475028 0.542351 1.073106 -0.336514 -0.673946 -0.456171 -0.077275 0.618837 -0.707542 0.782757 -0.604781 -0.231838 -0.315485 1.286953 -2.248849 0.817627 0.694925 0.384010 0.807659 1.477595 0.611797 -0.063627 -0.724463 -1.783543 -0.051500 -1.007997 -2.183327 -0.393374 0.485027 1.326226 -1.362827 -0.151904 0.888809 -0.505260 -0.769815 0.898427 -0.529486 -0.557120 0.175525 -0.412890 -0.738462
was 0.616110 -0.060260 0.228398 -0.860798 0.384778 0.187833 0.437762 0.124870 0.167770 0.911973 -0.469268 0.115573 -0.530844 -0.660586 -0.270736 -0.111204 0.342981 -0.619980 0.029168 -0.966097 -0.329826 0.667790 0.407159 -0.577575 0.917303 -0.340740 1.218191 -0.217351 1.433183 1.278800 0.247685 -1.055182 -1.238792 1.324285 0.483049 -0.258583 -1.650547 -0.329654 1.172331 -0.450300 -0.128449 -0.008583 -1.619084 0.527038 -0.662937 -1.531288 -0.554765 0.437454 0.180595 0.347087
with 0.236306 -0.396933 -1.355373 0.038738 0.101433 -0.167372 -0.112245 1.247194 -0.507190 0.114111 -0.719180 0.091768 -0.120544 -0.664344 -0.219814 -0.514777 -0.983280 -0.739801 1.293243 -0.236901 -0.577950 0.550400 1.530855 -0.155815 1.823485 0.291450 0.627748 -1.007371 0.125758 1.477104 -0.689948 -1.842910 -1.058076 -0.014225 0.056760 -0.014409 -0.656808 -0.064639 2.040004 -0.301056 0.273419 0.072720 1.248570 -0.140864 0.435870 -0.846937 -0.263758 0.187149 -0.274851 0.385428
for 0.014329 0.742957 -0.971183 -0.264679 -0.589569 0.683036 -0.336592 -0.421475 0.234105 -0.535749 0.238896 1.126165 -0.295799 0.301397 1.397384 -0.087203 -0.061373 -0.378342 0.262598 0.085869 0.356954 -1.059546 1.100361 -0.510999 0.543139 -0.525363 0.668604 0.472615 1.894903 0.507474 -1.312460 -0.132997 -0.264802 0.071776 1.512007 -0.812005 -0.522420 -0.759082 1.762312 -0.683982 0.047079 1.165871 -0.153410 0.434382 0.590294 -1.625367 -1.283763 1.006406 -0.422231 -0.433072
but 0.158872 -0.552614 -1.154798 0.118589 -0.228776 0.038189 0.218194 -0.142397 -0.668839 -0.301353 0.223769 0.268623 0.323965 -0.359775 0.144346 -0.530223 -0.514433 -0.138144 0.275466 -0.551504 0.291129 -0.950867 -0.231082 -0.240858 0.638251 -0.124951 0.147150 -0.694116 1.124174 0.191734 -1.085439 -0.628958 -1.210696 0.365393 0.022010 -0.786090 -1.808920 0.413607 1.048996 -0.409695 0.179781 0.217465 -0.724680 0.371733 -0.091092 -1.316673 -0.926074 0.633455 -0.317502 -0.600626
film 1.431637 -0.565551 0.108900 -0.350720 0.026090 0.492651 0.258367 -0.398978 0.313402 -0.184336 -1.060908 0.764023 -0.223679 0.136022 0.937088 -0.555923 -0.673598 -0.288321 0.359202 -0.575159 0.214962 -0.501344 -0.140317 -0.948855 1.117184 0.371060 0.702150 0.016079 0.838268 0.608764 0.319236 -1.057479 -0.657791 -0.218723 -0.184587 -0.456446 -1.050055 -0.592983 1.372676 -0.690807 0.030119 0.564027 -0.680612 -0.059143 0.455959 -1.532517 -1.030495 -0.117490 0.060683 -0.433191
movie 0.722470 -0.538243 -0.723796 -0.392017 -0.326494 0.248935 0.650573 -0.530377 0.167909 0.058861 -1.328524 0.117952 -0.308873 -0.157164 0.825750 -0.454202 -0.469065 -0.239936 0.845350 -0.316560 0.278052 -0.107179 -0.158269 -0.591647 1.315226 0.175362 1.039139 -0.630174 0.665919 0.134396 -0.157840 -0.671936 -0.409367 0.518111 0.385790 -0.158687 -1.747872 0.126043 1.265548 -0.879412 0.200466 0.779778 -0.657141 -0.227429 0.391597 -1.297411 -1.029585 0.039278 0.183951 -0.017524
his -0.914373 0.285214 -0.109743 0.484738 0.644095 0.086291 -0.451092 0.772264 -0.534807 0.548357 -0.501284 -1.097485 0.092052 -1.276265 -0.572130 -1.685077 -0.042655 -0.883304 0.947873 -0.594966 0.238383 -1.131411 1.418410 -1.203272 0.236031 0.720842 -0.493931 -0.315129 0.620682 1.491556 -0.857598 0.808140 -0.921854 -0.321052 0.302759 -0.872050 -0.609411 -0.485089 1.613726 0.185857 0.022822 -0.423808 1.135841 0.561883 0.252477 -1.431859 -0.754089 -0.266223 -0.609479 -0.778428
on -0.775899 -0.034078 0.090540 -0.342052 0.152599 0.178880 -0.378700 0.596011 -0.974651 0.492767 -0.038542 0.574306 -1.297011 0.043742 0.321963 0.615017 -1.272128 -0.516314 0.707425 -0.579427 0.509463 1.000751 0.165646 -0.497143 0.256100 -0.281763 0.718050 -0.012438 0.273422 0.367822 -1.472851 -1.024340 -0.478807 -0.624589 0.336566 -0.070607 -1.033928 0.427043 1.908727 -0.014758 0.983992 0.611164 -0.343503 0.813736 -0.701542 -2.174655 -1.897915 0.301215 1.428157 0.160838
you 0.003641 0.053560 -0.815753 0.716947 0.027529 1.288454 -0.338244 -0.578462 -0.425186 0.357909 -0.752685 0.025561 0.318665 -0.610422 0.436131 -0.878070 -1.048569 0.607957 1.285983 0.233754 -0.498578 -0.236716 -0.315474 -0.437657 0.910980 -0.539014 1.757679 -1.000670 0.524592 -0.493306 -0.048373 0.109657 -0.140664 0.178562 0.358144 -0.912537 -0.936831 0.836796 1.187276 -1.206432 0.439638 0.848397 -0.571586 -1.041665 0.500756 -0.753678 -1.930156 0.437871 -0.809003 -0.398393
are 1.468715 -0.490814 -0.348763 0.726156 0.495606 0.173885 0.554889 -0.942424 -0.596516 -0.050759 0.442590 0.937369 0.018067 0.393553 -1.039192 0.115144 -0.654807 -0.112884 1.659311 0.060552 0.108915 0.264630 0.930832 -0.417782 -0.069239 0.506049 1.247286 -1.156934 2.009293 0.761697 -0.420373 -0.696628 -1.002587 -0.375003 0.082430 -0.971912 -0.586250 0.740450 0.388347 -0.186951 1.237499 1.120252 0.426860 0.929031 -0.447579 -0.538633 -0.958934 0.604983 -0.523785 -0.026996
he -0.814858 -0.615083 -0.732631 0.568340 1.465086 0.170166 -0.130810 0.447428 -0.092182 0.106492 0.231828 -0.107255 -0.228368 -1.119983 -0.189174 -0.738591 0.459848 -0.869133 1.316811 -0.977242 -1.063560 -1.029022 0.416086 -0.769129 -0.132020 -0.085824 -0.204299 0.209933 0.789027 0.785754 -0.254323 0.533670 -0.271991 -0.563460 0.088094 -0.950610 -0.655246 -0.174638 1.770888 -0.031360 -0.579899 -0.329053 -0.605610 0.337851 -0.336657 -2.274611 -0.724162 -0.301963 -0.442065 0.194765
not 0.852465 -0.070813 -1.020880 0.159935 -0.091759 0.844372 -0.356160 -0.073987 -1.464119 -0.852756 0.399642 0.324501 0.108358 -0.884566 -0.145025 -0.797269 -0.688023 -0.008666 -0.105832 -0.834902 -0.027325 -0.517848 -0.261202 -0.625120 0.395953 -0.556538 0.849852 -0.527254 1.374166 0.583132 -0.466219 -1.317136 -1.111344 -0.056043 -0.337268 -1.373526 -0.738560 0.120846 1.249457 -0.249328 -0.183870 -0.237875 -1.676322 0.405520 -0.150671 -0.670375 -0.624174 0.610861 -0.833422 -0.798844
one 0.169635 -0.230026 -0.755379 -0.706294 -0.378561 0.497784 1.001057 -0.173389 -0.604057 -0.168186 -0.331252 0.022718 0.331223 -0.834649 0.682199 0.283239 -0.303636 -0.501569 1.049642 -0.365338 -0.252398 -0.986390 0.185092 -0.950265 0.348935 0.111511 1.038309 -0.746216 0.565959 0.303712 -0.894304 -1.017562 -1.079126 -0.262443 0.464579 -1.241468 -0.873260 -0.974977 1.098441 -0.425244 -0.569864 1.043231 -0.952865 0.350021 0.495047 -1.018493 -0.822317 0.228805 0.253346 -0.661972
have 0.184420 -0.210876 -1.697608 -0.573497 -0.047856 0.025249 0.128456 0.229147 -0.771281 -0.047825 -0.573988 -0.506348 -0.360421 -0.681200 -0.527418 -0.608624 -0.853101 -0.248092 0.636859 0.329091 -0.327746 0.446658 0.432804 -1.455241 0.060533 -0.260937 0.739972 -0.372950 1.058387 0.307751 0.941064 -0.333233 0.744653 0.032129 0.313520 -0.407540 -1.085664 1.288374 0.825325 0.485228 -0.151194 0.514233 -1.287352 0.165102 0.209944 -1.547234 -1.511836 -0.449533 -0.257905 -0.600378
be 0.310348 -0.698328 -0.616421 -0.330029 1.271702 0.648310 0.063904 -0.569396 -1.119299 -0.043975 0.212902 -0.189099 0.010792 -0.799306 0.333891 -0.857877 -0.664851 -0.315882 0.279222 -0.427601 0.124479 0.109185 0.811787 -1.214766 0.876041 -0.259549 0.804070 -0.573636 1.124555 0.821414 -0.036500 0.194450 -0.660225 -0.365457 -0.051355 -0.676968 -0.387866 0.770460 1.685963 0.182915 -0.092125 0.113712 -1.811034 0.056619 0.013504 -0.193001 -1.126441 -0.197603 -0.544041 -1.026938
all 0.743817 -0.497450 -0.887378 -0.002914 -0.381397 -0.576894 0.827947 -0.395649 -0.569332 0.098680 -0.828238 0.414829 0.580528 -0.234088 -0.276689 -0.154308 -0.374779 0.881803 1.279519 -0.628670 0.241979 -0.938001 -0.489425 -0.553967 0.661567 0.204829 0.906974 -0.635547 1.436326 0.207442 -0.793863 -0.373578 -0.513322 0.179817 0.271028 -0.422804 -0.880687 0.380447 1.054633 -0.879905 0.663879 1.007007 0.458248 0.490623 -0.075118 -1.227842 -0.062148 -0.083092 -0.786984 0.053100
its 0.121446 -0.852716 -0.406776 -0.074072 -0.405319 0.486748 0.629842 -0.709875 -0.694212 -0.771459 -1.092211 0.495328 0.127992 0.130165 0.599828 -0.676715 -0.440764 -0.422512 0.586686 -0.521741 1.131553 -0.663638 -0.255545 -0.217347 0.699607 0.350575 0.302136 -1.182356 1.508500 0.660937 -1.092069 -1.096453 -0.888614 -0.445355 -0.473761 -0.569353 -1.269578 0.557449 0.709779 -0.418893 0.803807 -0.560605 -0.571796 0.522023 -0.294061 -0.616485 -0.873341 0.136124 -0.183336 -0.440741
an 1.126959 0.460135 -0.889682 -0.040611 -0.803312 0.868107 0.179343 -0.213899 -1.018543 0.165817 -0.158702 -0.551581 -0.335071 -0.237882 0.312736 -0.315838 -0.438238 -0.136486 0.712897 -1.415091 -0.338497 -0.154658 -0.573035 0.387814 1.533925 0.206543 0.160357 0.397051 2.480974 0.822169 0.846809 -0.376736 -0.739024 -1.261543 -0.185885 -0.344659 -0.823407 -0.839031 1.369057 -0.764806 -0.915792 -0.803309 0.780104 -0.583490 2.697838 -1.499192 0.030439 -0.034952 0.386602 -0.233330
by 0.430951 -0.648345 0.503466 -0.557325 0.966692 -0.909096 0.706367 0.526742 -1.102180 1.420315 0.143944 -0.663421 -0.883560 0.393084 -0.233856 -1.004227 -0.340989 -0.273620 1.689374 -0.147190 -0.329290 -0.083801 0.678457 -0.847254 0.490503 0.796046 1.790380 0.332568 0.991633 0.130384 0.761302 -0.981287 -0.662119 0.098061 0.304160 0.235203 -0.274832 0.371432 0.841071 -0.093561 0.156617 0.563484 -0.389753 1.028819 -0.301932 -0.711102 -0.622750 -0.158644 -0.423199 -0.909060
at 0.372568 -0.526106 -0.120177 -0.181319 -0.102490 0.718638 0.444117 0.602947 0.850644 0.517562 -0.598081 -0.798349 0.797363 -0.833408 -0.424448 0.121475 -0.203410 -0.882642 0.569606 -0.695961 -0.892796 -0.340471 0.196958 -1.029182 0.875845 -0.264968 0.074728 0.110411 1.597388 0.043315 -1.020115 -0.270482 -0.530120 0.160142 0.267284 0.875249 -0.647383 0.247310 1.729984 -1.019738 -0.624186 1.080406 -0.361435 0.427536 -0.075539 0.091553 -1.329186 0.008654 -0.008088 -0.965388
who 0.045159 -0.099906 -0.832764 0.326374 -0.091305 -0.055844 0.472967 0.410073 -0.491329 0.147743 1.005385 0.588612 -0.672642 0.119278 -0.708887 -1.466523 -0.692504 -0.859725 1.536209 -0.600799 -0.996797 -1.143890 1.032001 -0.808459 0.506257 0.531458 0.770301 -0.598154 1.031963 -0.567134 0.782698 -0.213675 0.326248 -0.715737 0.230899 -0.242189 -0.106335 -0.513480 1.868141 -0.200933 -1.123085 0.620533 -0.083756 0.270136 0.357282 -1.428833 -0.768054 1.468505 -0.426209 0.861686
from 1.093336 -0.695736 0.421714 0.223646 0.295418 0.095381 -0.096303 0.146616 -0.358182 -0.148837 -0.769010 -0.876824 -0.046609 -0.303150 0.564779 -0.898302 0.020146 -0.707290 0.825423 -1.297165 0.579555 -0.648137 0.338802 -0.490901 0.545425 0.727153 0.529595 0.157428 0.365562 0.027630 -0.046138 -0.511048 -0.902318 0.377769 -0.124108 -0.309357 -0.077829 0.112083 0.823247 0.385128 0.179747 1.248324 0.336059 0.840691 0.050442 -1.271558 -1.097344 0.074481 -0.572232 0.524327
her -0.980017 0.596621 -0.550730 0.056194 -0.333030 -0.025939 0.421066 1.762763 -0.263809 1.195577 0.554140 -1.094793 0.365289 -0.062217 0.363605 -0.866771 -0.715458 -0.444436 1.776652 -0.069617 0.009111 -1.477085 -0.333247 -1.071504 1.048808 -0.580813 -0.514223 0.336955 0.839065 0.019264 -0.531541 -0.308218 -1.353548 0.810167 -0.068411 0.263456 -0.322332 0.519405 1.398838 0.019433 -0.667185 0.886572 0.190871 -0.000100 0.171489 -0.788336 -0.421986 0.835837 -1.010221 -0.279589
has -0.179794 -0.810466 -1.178371 -0.825078 -0.226667 -0.229426 0.795447 0.407854 -0.374227 -0.250348 -0.381058 0.287785 -0.782858 0.170785 -0.421483 -1.277476 -0.103666 -0.925136 1.180241 -0.707488 0.369150 0.105411 0.920384 -0.962808 0.655545 0.588822 0.354553 -0.217812 0.236467 0.349653 0.352630 -0.277378 -0.282035 -0.100185 0.152922 -0.166610 -0.731954 0.686429 0.989260 0.581813 -0.665000 0.074654 -0.326800 0.418562 -0.207759 -1.729671 -1.200738 -0.082532 0.055843 -0.478129
so 0.739317 -0.358173 -0.810939 0.101614 -0.007535 0.173992 -0.342149 -0.480046 -0.005629 -0.445789 -0.378606 1.107363 -0.687024 -0.638628 -0.172802 -0.051592 0.239892 -0.448152 0.933645 -0.625629 0.681340 -0.141342 -0.060677 -0.339713 0.757420 -0.403655 0.429187 -0.435662 1.140696 0.704573 -0.250917 -0.601020 -1.104719 -0.159817 -0.393076 -0.331923 -0.901919 0.879157 1.329900 -0.476877 0.154281 0.036925 -0.690423 -0.020187 -0.605368 -0.811458 -0.841627 -0.092638 -0.695976 0.231035
like 0.272871 -0.764222 -1.066266 -0.214440 0.216465 0.393262 -0.373533 -0.078553 0.600441 -0.172349 -0.134514 -0.649334 -0.704069 -0.491110 -0.859959 0.052318 -0.804922 0.355864 0.292362 0.286082 -0.373333 -0.556402 0.157927 -0.518484 0.280602 0.118739 0.477298 -0.516401 0.009593 -0.127034 -0.348468 -0.469759 -0.541505 0.410424 -0.180576 -0.394805 -1.494743 0.173939 1.452749 -1.369006 -0.209721 0.823522 -0.647745 -0.055798 0.622421 -0.994305 -1.177947 0.246999 -0.186295 0.564656
they 0.534580 -0.679947 -0.846867 0.715243 -0.418893 0.568174 -0.901485 0.661773 -0.735040 -0.207384 -0.349618 0.210779 1.020186 -1.191556 -0.818515 0.756682 -1.346202 -0.328081 0.646643 -0.639105 -0.266436 0.269865 -0.080032 -1.054995 -0.066887 -0.122077 1.207940 0.149396 0.816489 0.410261 0.193534 0.281206 0.027306 0.398561 0.244894 -0.456871 -0.208348 1.030852 1.172249 0.044090 0.192810 0.696771 -0.178273 0.929969 -0.107444 -1.221789 -1.142884 0.898305 -0.840083 -0.105156
very 0.301126 -0.888144 -0.101651 -0.110134 -0.434570 -0.136558 0.756283 -0.188741 0.395647 0.260323 -1.036929 0.813582 0.381188 0.294926 -0.356332 -0.001059 -0.198548 -0.917674 0.234325 -0.861951 0.588969 -0.219482 0.134019 -0.181493 1.227670 0.234844 0.377793 -0.138175 1.735858 0.424967 0.303262 -1.335750 -0.798873 0.443703 0.209598 -0.687503 -2.024362 1.210336 0.363273 -0.365415 0.235536 -0.184691 -0.247487 0.392394 0.723865 -0.429663 -0.312046 0.809424 -0.619873 0.177243
more 0.301700 -1.055751 -1.859794 -1.035912 0.745903 0.557558 -0.442790 -0.642136 0.063924 -0.129851 0.445804 -0.679074 -0.181839 -0.077896 0.324524 0.306426 -0.026350 0.463547 -0.040870 0.347026 0.499921 -0.860081 0.241067 -0.224031 0.357005 0.099014 0.061110 0.253654 1.000682 0.484843 0.010090 -0.784559 -1.200371 0.082850 1.158271 -0.352701 -1.249959 1.427971 1.012465 -0.400092 0.072724 1.058450 -0.402831 -0.107801 0.678688 -1.030354 -1.124882 -0.240255 -0.896627 -0.052855
about 0.389513 -0.293091 -1.251095 -1.166875 -0.520626 -0.092508 0.350859 -0.236964 0.502286 -0.097160 -0.399370 -0.663195 -0.021643 -1.079910 0.025493 -0.621236 0.019840 0.380865 0.066749 -0.624304 0.732981 -1.174274 -0.020820 -0.765276 -0.332315 0.196385 1.902696 0.055739 0.897515 -0.806728 -0.632172 -0.272398 -0.882875 -0.127655 0.479592 -0.580530 -0.864362 -0.200166 0.609831 0.709530 0.175723 -0.310755 -0.168453 0.347284 -0.128978 -1.350025 -0.607797 0.032055 -0.415120 0.877150
when 0.414065 -0.087010 -0.169862 0.612705 0.043502 0.279066 -0.047611 0.598156 0.181807 0.880413 -0.059570 -0.663610 -0.203118 -0.853533 -0.258414 0.293707 0.200672 -0.353947 0.934331 -1.068390 -0.277933 0.103482 -0.095759 -0.719545 0.256048 -0.833863 0.632878 0.041753 0.426118 0.784418 -1.192994 0.142609 -0.682059 0.550665 -0.183544 -0.020554 -0.933378 0.227603 1.531415 -1.177329 0.128423 0.332788 -0.484198 0.013126 -0.239600 -1.141838 -1.245676 0.552614 0.210908 0.483359
or 0.316769 -0.560703 -0.754417 -0.308706 -0.423233 0.345973 -0.322807 -0.328864 -0.534082 -0.416813 0.599280 -0.369103 0.247824 -0.127500 -0.437429 0.361373 -0.237130 0.227030 -0.430510 0.363899 -0.261570 -0.531111 -0.139809 -0.950961 -0.093940 0.505625 0.927673 -0.893634 0.179147 0.335632 -0.672991 -0.665234 -0.806749 -0.562953 0.612830 -0.277427 -0.697152 0.001152 0.922326 -0.593946 0.147619 0.553084 -0.869698 -0.037555 -0.004125 -1.285256 -1.405856 -0.362335 -0.201820 -0.458869
good 0.411360 -0.389799 -0.761990 0.402759 -0.144319 -0.163553 -0.078370 -0.179605 0.156390 0.144048 -0.608827 0.350431 0.681608 -0.269657 -0.510889 -0.324981 -1.130903 -0.892210 0.085133 0.021228 0.034523 -0.521505 0.620193 0.290170 0.784601 0.140785 0.057588 -1.159231 1.311014 -0.306850 -0.037601 -0.535049 -0.385931 0.634712 -0.081718 -1.144741 -1.842833 -0.143691 0.886820 -0.423348 -0.267012 0.200681 -0.233906 0.790309 0.629313 -0.841596 -0.644732 0.570863 -0.544027 0.020685
out 1.010559 -0.356804 -0.300772 -1.025138 0.073165 -0.487289 0.158307 0.690605 -0.842967 0.742814 0.354386 0.798972 0.426617 -0.567994 1.136793 0.144267 -0.189615 -0.253294 0.048396 -1.289924 -0.622648 -0.305099 -0.085711 -0.080527 0.196595 -0.891463 1.210685 -0.157348 0.638252 0.264178 -0.131662 0.096413 0.166441 0.226272 0.990741 -0.047043 -0.086743 0.193491 2.430017 0.584796 -0.323235 1.003994 0.400357 0.626088 0.061707 -1.834717 -0.901329 -0.273718 0.327616 -0.257828
she -0.391815 -0.460251 -1.260382 0.146226 -0.322390 0.213912 0.406147 1.402865 0.146766 0.727346 0.683641 -0.070260 -0.038132 -0.462277 0.523399 -0.221446 -0.006215 -0.939160 1.804897 -0.796920 -0.657668 -0.859316 -0.815811 -0.215920 0.506750 -0.862817 -0.208196 0.250228 0.621471 0.116839 -0.054473 -0.066702 -0.545993 0.605639 -0.640482 0.214479 -0.504278 0.542542 1.463563 -0.341637 -1.231759 0.115963 -0.481717 -0.015382 -0.353078 -1.247322 -0.538976 0.667691 -0.797202 0.381042
story 0.098520 -0.592408 -0.037938 -0.471645 0.047817 0.054873 0.314311 -0.771840 -0.238394 -0.009971 -0.975774 -0.342204 -0.231598 0.573687 -0.264862 -0.663409 -0.427346 -0.215562 0.287856 -0.248397 0.256655 0.059173 0.095985 -0.333385 1.085257 0.931644 1.170678 -0.352123 1.302351 -0.050089 -0.304210 -1.175662 -0.431622 -0.589261 -0.202081 -0.423953 -1.434561 0.418873 0.380577 0.268974 0.334582 -0.686513 0.007672 -0.473029 0.624277 -1.787482 -0.964557 -0.291972 0.168628 0.338222
what 0.732782 -0.620769 -1.480352 0.113698 -0.028429 0.338892 -0.423485 -0.417525 -0.074069 -0.449880 -0.204281 0.107319 -0.082960 -1.042202 0.205424 -0.495684 -0.230329 0.255828 0.991613 -0.742647 0.038938 -0.449523 -0.706512 -0.412923 0.113243 -0.588602 1.504791 0.376682 0.788365 -0.025317 -0.359983 0.228269 -0.322543 0.176516 -0.386536 -0.528496 -0.944951 0.309133 0.917364 -0.180223 -0.177356 -0.702623 -0.910346 0.263378 0.254683 -1.330201 -1.299176 0.493884 -0.619208 0.308645
some 0.177275 -0.371752 -0.510834 0.125691 -0.009254 0.401600 0.197058 -0.311293 0.763678 -0.815101 -0.693961 0.737252 0.413018 -0.073380 -0.193644 0.313413 -0.606868 -0.508854 0.296050 -0.254728 -0.267304 -0.255370 0.127905 -0.177542 0.367698 -0.382161 0.191307 -0.890322 1.889309 0.489426 -0.256074 -0.516979 -0.484921 -0.344029 0.151909 -0.485778 -0.580430 0.476948 1.104605 0.234310 0.191628 0.503380 -0.070177 0.562523 0.072272 -0.966602 -1.121495 -0.314598 -0.175302 -0.130181
just 0.147872 -0.539735 -0.570231 -0.424198 -0.245957 0.288641 -0.374733 -0.105842 -0.206322 -0.031498 -0.417765 0.434821 0.101693 -0.430767 0.099214 -0.233943 0.105390 -0.239081 0.371819 -0.495887 0.085933 -0.636509 -0.099800 -0.865579 0.080423 -0.055381 0.879022 -0.773478 0.536657 0.029167 -0.121061 -0.407706 -0.494272 -0.179807 0.339439 -0.702450 -0.776807 0.565341 1.442709 -0.459269 -0.157259 0.182549 -0.805595 -0.015613 -0.052658 -0.878185 -1.069550 0.559938 -0.204447 0.409025
my 0.865367 1.551469 -0.116923 -0.968574 -1.114808 -0.077653 0.649535 0.927001 -0.969219 0.310442 -1.647637 -1.198414 0.242152 -0.627430 -0.420903 -0.755734 -0.892150 0.294655 0.509603 -0.476901 1.640910 -0.171527 1.098371 -1.413514 0.464955 -0.827572 0.440882 -1.063516 0.075121 1.081808 -0.343868 -0.594995 -1.154740 0.014010 0.308585 -0.124016 -0.612609 -0.204490 1.586735 -0.102933 -0.775872 0.329700 -0.687959 0.124213 -0.177342 -0.285294 -0.422589 -0.333592 0.117289 -0.103665
there 0.260643 -0.651314 -0.997538 -0.540518 0.168406 1.111985 0.297829 -0.187133 -0.279308 -0.350713 0.007264 0.455188 0.052935 -1.290026 -0.048983 0.130362 -0.056201 -0.483482 0.654737 -0.290329 -0.139794 0.089875 0.401814 0.082999 -0.237077 -0.116937 1.004363 -0.839443 1.311873 0.459734 -0.608658 -0.496766 -0.965437 -0.076710 0.638228 -0.287240 -0.785645 0.265001 1.024472 0.518092 0.176870 0.454106 -0.264485 0.107879 -0.182658 -0.655019 -0.939589 0.280978 -0.248797 -0.428629
if 0.439389 0.518206 -1.112090 0.388398 -0.471528 1.030565 -0.410132 -0.365027 -0.434516 -0.514874 -0.182588 0.279666 -0.240188 -0.750392 0.082098 -0.686810 -0.377224 0.291511 0.427189 0.188551 -0.455670 0.209693 -0.147904 0.023645 0.420365 -0.515728 1.173548 -0.461891 0.561095 -0.234765 0.065904 -0.359308 -0.135442 0.245884 0.385314 -0.877768 -0.764481 0.292093 0.949974 -1.306518 -0.181539 0.972187 -1.138809 -0.611056 0.276346 -0.670994 -1.524916 0.503799 -0.424507 -0.467659
their -0.228384 0.314365 -0.400963 0.016927 -1.374795 -0.042860 -0.204707 0.976378 -0.518657 0.050275 -0.322797 -0.446940 0.621261 -0.159828 -0.400386 0.388115 -1.692211 -0.130550 0.756685 -0.473198 0.681710 -0.382405 0.078948 -0.710473 0.201760 0.314123 0.770978 -0.096394 1.339053 0.408854 -0.218511 -0.195589 -0.857356 -0.443878 0.229259 -0.243001 0.362399 0.668839 1.170519 0.525520 0.612812 0.525058 1.480752 0.946583 0.168764 -0.961485 -0.898314 0.614796 -0.325609 -0.187983
great 0.316747 -0.302677 -0.201984 0.416146 -0.377308 -0.198485 -0.063465 -0.235941 0.420880 0.017243 -0.574234 0.309730 0.615800 -0.169989 0.125027 0.262999 -0.412712 -1.307834 0.380467 0.469712 -0.171454 0.006356 0.577120 -0.264533 0.780721 0.716959 0.174693 -0.784720 1.046760 0.512819 -0.201471 -0.369534 -0.664077 0.476751 -0.364679 -1.059231 -1.132594 -0.395155 0.499017 -0.394242 -0.197631 0.908389 -0.169759 0.259386 0.524068 -1.585998 -0.805318 -0.235495 -0.249201 -0.367788
which 0.764862 -0.247329 -0.234358 -0.319977 0.813654 0.583946 0.283163 -0.060619 0.157551 0.198521 -0.335070 -0.324175 0.017809 -0.411239 0.024651 0.093063 -0.806290 -0.276688 1.058171 -0.374972 -0.649099 0.280163 -0.222350 -0.065317 0.330135 -0.289919 0.604989 -0.253586 0.636473 0.194479 -0.167322 -0.424351 -0.451820 0.028511 -0.332173 -0.205533 -0.794834 0.130206 0.865723 0.467176 -0.240394 0.535099 -0.079161 -0.006152 0.203500 -1.438526 -0.985239 -0.342274 -0.142918 0.074372
see -0.143545 -0.077705 -0.361083 0.297361 0.008852 0.025150 -0.184819 -0.577241 -0.911047 0.544746 -0.196110 0.174147 0.251563 -0.260117 0.227899 0.148191 -0.438059 0.037477 0.679840 0.326119 0.386541 -0.230069 0.109124 -1.194565 0.276087 -0.274466 1.062387 -0.566977 0.400951 0.357552 -0.404499 -0.004421 0.079903 0.220770 -0.144107 -0.838877 -0.823110 0.760922 1.065957 -0.445735 0.151412 0.901318 -0.511972 -0.124144 0.565630 -1.164141 -1.173639 0.378279 -0.623562 0.349766
can 0.231110 -0.830626 -0.351343 -0.007765 0.478782 0.461685 -0.123031 -0.586657 -0.725149 0.333362 -0.277563 -0.051791 0.683522 -0.970578 0.499087 -0.431158 -0.813250 0.107773 0.998575 -0.351242 -0.034648 -0.294278 0.152003 -0.703119 0.300528 -0.545924 1.171308 -0.768259 0.539693 0.311539 -0.054227 0.400665 0.087789 0.313204 -0.350492 -0.891587 -0.721557 0.627893 0.988575 -0.133270 0.187292 0.196533 -0.365901 -0.244643 0.693041 -0.519408 -1.168593 0.203179 -0.626086 -0.053066
will 0.308455 -0.122579 -0.765985 0.095131 0.122329 0.601609 -0.084688 -0.150613 -0.729107 0.114547 -0.357564 -0.083398 0.243345 -0.460081 0.291046 -0.898403 -1.307743 0.329035 1.227339 -0.225324 -0.408219 -0.239411 0.376385 -0.758871 0.606089 -0.212226 1.302236 -1.417706 0.120202 -0.472108 0.055654 0.174019 0.166715 -0.112484 0.281030 -0.731757 -0.029934 0.633640 1.147617 -0.010984 0.280717 0.671249 -0.138644 -0.727354 -0.146320 -0.461897 -1.244798 0.144280 -0.481406 -0.585421
time -0.367930 -0.277202 -0.305038 -0.405722 -0.608678 0.256278 0.765516 -0.055511 0.012927 0.059559 -1.385197 -0.185332 0.667320 -0.749877 -0.049028 0.065800 -0.053181 -0.042790 0.676000 -0.283486 0.650670 -0.401500 -0.031021 -1.284374 0.352468 0.371812 0.168781 -0.569586 0.784874 0.261530 -1.314406 -0.265360 -0.064643 0.065046 0.232095 -0.041155 -0.943426 0.576885 1.344319 -0.697270 -0.193755 1.285561 -0.221415 0.539502 0.146329 -0.592104 -0.552344 0.438248 0.406355 -0.342207
up -0.041996 -0.719579 0.143365 0.377313 0.394119 1.301385 -0.220363 1.132182 -0.296804 0.057630 -0.629830 0.987264 0.031914 -0.550674 0.411357 0.053624 -0.197542 -0.204797 1.539548 -0.757991 -0.635556 -0.098987 -0.511151 -0.190070 0.159316 -0.281749 0.624339 0.326193 0.157198 0.385738 0.195693 -1.118114 0.231818 -0.687413 1.096797 0.406115 -0.088298 0.737413 1.586643 0.264204 0.308154 0.245273 0.589919 -0.304859 -0.221120 -1.382515 -0.676490 0.628326 0.022279 -0.111747
me -0.185108 -0.217270 0.034733 -0.876108 0.417427 0.262686 0.517049 -0.152494 0.603394 0.173155 -2.047330 0.789345 -0.213953 -0.014490 0.606733 -0.081141 -0.397663 0.288729 1.239413 -0.091762 -0.106158 -1.149872 -0.461700 -0.061933 0.701818 -1.119881 1.360676 -0.838432 0.057138 0.127478 0.542779 0.016493 0.021900 0.918899 1.010195 -0.473226 -0.421894 0.257467 1.725200 -0.093619 -0.405513 0.349215 -0.718180 0.226108 0.291272 -0.746416 -0.901699 -0.262058 -0.548019 0.713742
well 0.178958 -0.458166 -0.180107 0.561067 -0.417918 -0.339863 -0.381050 0.319684 0.003369 0.300072 -0.756734 1.127220 -0.070067 0.462501 0.125523 0.348623 -0.376424 -0.435801 1.088360 -0.409363 0.007196 0.331531 0.377887 -1.276590 0.910683 0.248339 0.846583 0.642221 1.317031 0.612360 1.085027 -0.849048 -0.745389 0.005698 0.553102 -0.920874 -1.024999 0.536805 0.823814 -0.957828 0.827886 -0.493090 -0.702485 -0.087354 -0.027005 -0.854010 -0.108215 0.182205 -0.518836 -0.495700
even 0.244914 -0.261592 -0.974647 0.259659 0.214452 0.763221 -0.591169 0.164021 -0.174864 -0.030097 0.234892 -0.274839 0.133543 -0.444996 0.012670 -0.139127 0.184745 -0.038712 0.484902 -0.183208 -0.158141 -0.577039 0.061969 -0.575375 0.224268 -0.159919 0.234469 -0.180131 0.667820 0.581303 0.286948 -0.609105 -1.120013 -0.139182 0.857037 -0.527045 -0.613253 0.605326 1.092857 -0.826704 0.010782 0.532226 -0.775323 -0.315969 -0.047126 -0.940651 -0.735399 -0.091906 -0.737462 -0.341036
other 0.126202 -0.785267 -0.349914 -0.246583 -0.121661 0.509104 -0.009851 0.254324 0.046467 -0.882590 0.009521 0.111469 0.009295 -0.753763 -0.504706 1.073484 -1.066709 -0.336849 0.585390 0.379222 0.002066 -0.420592 0.471958 -1.275847 -0.212492 0.407578 0.548173 -0.346998 0.594269 0.400731 0.250976 -0.761881 -1.113056 -0.530331 0.662236 0.271494 0.123375 -0.168004 0.848086 0.654156 0.254156 1.404014 0.022314 1.041869 0.312069 -1.068144 -0.753489 0.183910 -0.645665 -0.179457
also 0.527971 -0.541157 -0.105034 -0.253419 0.105979 0.106211 0.123345 -0.135447 0.367181 0.364316 -0.127044 0.496301 0.009736 -0.217589 -0.075749 -0.401161 -0.083563 -0.877684 0.305963 -0.447444 -0.174324 0.024984 0.388088 -0.457683 0.347685 0.120583 0.594269 -0.256170 1.558182 0.147806 0.636537 -0.191880 -0.435323 0.458957 -0.061878 -0.279206 -1.328418 0.362220 0.588665 0.011430 -0.289511 0.020239 -0.166670 -0.182591 0.287089 -1.152886 -0.817494 0.566558 -0.320744 0.030756
most 0.853653 -0.207347 -1.414207 0.164848 -0.285575 0.122001 0.878477 -0.898841 0.574221 -1.159971 -0.240310 -0.230985 -0.728843 -0.274214 0.470137 0.578790 -0.813515 0.107747 0.891451 -0.452821 0.112444 -0.578028 -0.125120 0.026682 1.044655 -0.241143 -0.313939 -0.494176 1.243126 0.177564 0.022895 -0.399955 -1.311747 -0.232735 0.115786 -0.844957 -0.862177 -0.349262 0.319455 -0.499170 0.080985 0.794559 -0.630612 -0.038922 0.653556 -0.737313 0.151098 -0.859280 -0.565048 -0.406930
were 0.784129 -0.132790 -0.397526 0.413543 -0.101957 0.423651 -0.079657 0.220329 0.747026 -0.321279 -0.441765 0.511400 -0.188638 -0.447270 -0.670367 0.673510 -0.688329 -0.612938 0.318662 -0.692381 0.072743 0.008161 0.438131 -0.506048 -0.327081 -0.327917 0.839015 -0.521790 1.619609 0.709533 0.204934 -0.368507 -1.062086 0.576260 0.629260 -0.638690 -0.419101 0.416916 0.690473 0.315630 0.804333 0.566110 -0.188914 1.238501 -0.861131 -0.428563 -0.431868 0.583748 -0.204201 0.700368
really 0.092060 -0.906463 -0.724151 0.018358 -0.226526 0.198355 -0.118696 -0.086871 0.550475 0.086804 -0.667116 0.537688 0.375064 -0.533632 -0.017592 -0.364341 -0.534067 -0.574733 0.658077 0.145475 -0.306804 -0.531048 -0.239376 -0.404934 0.404080 -0.340898 0.844466 -1.378377 0.491211 -0.002122 0.514834 -0.247369 0.099866 0.981874 -0.076025 -0.669408 -1.475970 0.317044 1.058688 -0.241205 -0.192511 -0.422214 -1.192649 -0.114899 0.090584 -1.239450 -0.707911 0.382041 -0.652555 0.387483
would 0.411232 -0.100881 -0.552779 -0.605625 0.149970 0.873441 -0.539542 -0.175558 -0.576056 0.032522 -0.256906 -0.460738 -0.171929 -0.738121 0.059187 0.021078 -1.049099 0.105767 -0.181409 -0.057986 -0.093579 0.291358 0.581204 -1.097447 0.196366 -0.545465 0.934710 -0.636898 0.765161 0.499937 0.625402 0.123923 0.414039 -0.019271 0.146471 -0.364170 -0.576484 0.718467 1.264036 0.008415 -0.072749 0.266943 -1.027527 -0.464982 0.457264 -0.909737 -1.362788 0.138500 -0.115156 0.210874
only 0.222809 -0.253318 -0.526681 -0.209029 -0.109439 0.638367 0.119605 0.044149 -0.516932 -0.442061 0.005034 -0.111516 0.616145 -1.260993 0.082646 0.105934 -0.353169 -0.368513 0.418706 -0.218258 -0.290601 -0.517049 -0.409923 -0.940477 -0.431041 0.001303 0.869940 -0.458300 0.247990 0.146166 -0.465358 -0.525409 -0.444597 -0.134234 0.461023 -0.573036 -0.948361 -0.774549 0.542291 0.726374 -0.142968 0.099870 -1.146344 0.462277 0.114868 -1.502564 -0.455183 0.322287 -0.186564 -0.427614
had -0.350118 0.072413 -1.045239 -0.769262 -0.721234 0.064209 0.145341 1.076771 0.074885 -0.219056 -0.600773 -0.411701 -0.573130 -0.730612 -0.601975 0.059633 0.240726 -0.631938 0.226034 -0.161172 0.172910 0.367886 0.578242 -0.778666 -0.033538 -0.207911 0.510036 -0.190810 0.777717 0.639566 1.066741 -0.391228 -0.325762 0.588743 0.726822 -0.165897 -0.556048 0.899719 0.786475 0.256070 -0.620466 0.651567 -0.866650 0.581575 0.162045 -1.317514 -1.138882 0.085626 -0.071200 0.470703
than 0.017402 -1.004309 -1.573045 -0.717616 1.003903 0.454347 -0.332869 -0.625197 -0.660600 -0.263171 0.485180 -0.596376 -0.877377 -0.218361 0.253386 0.480704 0.208478 -0.007755 0.281069 0.162887 0.784372 -0.914988 0.232865 -0.311706 -0.237909 0.604896 -0.191841 0.662523 0.526123 0.380603 -0.019969 -0.554824 -1.096905 -0.395349 1.219034 0.039550 -1.450518 0.557593 0.764614 -0.375844 -0.022114 0.595252 -0.584710 0.522438 0.861386 -0.907230 -0.822552 -0.134859 -0.512757 -0.287312
love -0.331592 -0.051264 -0.927651 -0.625636 -0.900988 0.284012 0.096541 -0.065967 0.039941 0.375737 0.495887 -0.326947 -0.527422 -0.281213 -0.018414 -0.403855 -0.651088 0.346227 0.566738 0.442042 0.342012 -0.239936 0.543470 -0.809173 0.762723 0.259405 1.493800 -0.972657 0.802870 -0.375569 -0.902147 -0.159443 -0.775121 0.081868 -0.508664 0.164189 -0.722611 -0.051785 1.085566 -0.120028 0.003647 0.064205 0.406386 -1.147570 0.618175 -1.067949 -0.864914 0.810179 -0.449387 0.392391
into 0.107755 -0.428581 -0.135916 0.369229 0.551970 -0.039197 -0.375708 0.252997 -0.799333 0.103779 -0.268228 0.065543 0.973624 0.380291 -0.375784 -0.901717 0.118812 0.006225 0.556478 -0.545422 -0.695282 -0.608010 -0.381480 -0.217900 0.503442 0.037654 0.589489 0.119945 0.652065 -0.466784 -0.217228 -0.777681 -0.264586 -0.344238 0.644970 -0.070083 0.328842 0.475537 1.434540 0.068684 -0.299192 0.932415 0.696397 -0.297720 0.134235 -1.695498 -0.752603 -0.623636 -0.457190 -0.189880
best 0.207643 0.337391 -0.333963 0.616079 -0.948172 -0.022920 0.633731 0.369080 -0.486017 -0.465158 -0.541944 -0.197212 -0.412980 -0.744570 1.180030 0.073524 -0.757811 -0.696543 0.992802 -0.193123 -0.012337 -0.080198 0.388879 -0.551179 0.663412 0.257371 -0.127628 -0.195006 1.221707 0.076806 0.416327 0.025551 -0.285389 0.290493 0.563947 -0.840593 -0.478933 -1.112671 0.325092 -0.262815 0.175726 1.127180 -0.895953 0.543443 0.020537 -1.471907 0.302560 -0.176772 -0.261987 -1.328452
much 0.077689 -1.040883 -1.007617 -0.500557 0.793974 0.230041 -0.658369 -0.522968 0.358065 -0.156504 -0.473422 0.037769 -0.325659 -0.610575 0.061029 -0.094748 -0.026158 0.477369 0.073541 -0.259960 0.794692 -0.905862 0.591891 -0.388800 0.142570 -0.104458 0.275774 0.639468 1.009928 0.024952 0.084531 -0.711147 -1.148542 0.228481 0.477571 -0.531179 -1.114730 0.962638 1.203745 -0.446519 0.210782 -0.034923 -0.667155 0.013482 0.220394 -0.386117 -0.656925 0.105555 -0.921549 0.273808
we -0.282689 -0.426426 -0.446747 0.788470 -0.256196 -0.301495 -0.351953 0.070190 -0.609635 0.014649 -0.835561 0.041546 0.956256 -1.622332 -0.442526 -0.305799 -0.216357 0.765511 0.992067 -0.332049 0.411646 -0.754942 -0.490425 -1.583109 0.001558 0.067714 1.176180 0.355899 0.478175 -0.133732 -0.418263 0.209295 -0.253935 0.083888 -0.186701 -0.298346 0.024459 0.696724 0.923200 -0.169310 0.675432 0.801510 -0.336662 0.298835 -0.058050 -0.750174 -0.818729 0.413758 -1.257318 0.025955
films 1.108841 -0.133826 -0.646643 0.187308 -0.072494 0.183059 0.355157 -0.498758 -0.044062 -0.967288 -1.182690 -0.355045 -0.597962 -0.781147 -0.167003 0.274123 -1.059714 0.124952 0.551549 0.138794 0.377465 -0.222615 0.257962 -0.531951 0.189502 0.353164 -0.389288 -0.249274 0.522279 0.678736 -0.049074 -0.473765 -0.374273 -0.272099 0.241524 -0.505256 -0.832733 -0.682936 0.548933 -0.056927 0.231184 1.246640 -0.588842 1.047574 0.036201 -1.501818 -0.379034 -0.588406 -0.165587 -0.359458
first -0.145750 -0.126689 0.104999 -0.232468 -0.323608 0.278769 0.650996 0.175591 0.327146 0.546719 -0.856948 -0.812360 0.142239 -1.615863 -0.117428 0.138324 0.148215 -0.143983 0.082421 -0.510799 -0.068963 -0.454133 -0.239638 -1.080481 0.260424 0.160737 0.284185 0.204837 0.466783 0.264458 -0.841337 -0.346080 0.175699 0.276882 0.318615 -0.011913 -1.117653 -0.036717 0.750136 -0.795336 -0.051393 1.250571 -0.532101 0.443440 0.577964 -0.514599 -0.729951 0.634536 0.649811 0.054054
life -0.650905 -0.145132 -0.968470 0.038714 -0.379463 -0.111698 -0.168356 0.148523 0.178820 -0.020516 -0.713515 -0.321218 0.613072 -0.292078 -0.653632 -0.971981 0.075542 -0.216786 1.204340 -0.056312 0.576430 -0.593649 -0.111058 -1.043990 0.597306 0.901443 1.022422 0.161250 0.562005 0.149081 -1.197327 -0.037432 -0.959058 -0.476562 -0.295336 0.028860 -0.515434 0.481386 0.902634 -0.022101 -0.240554 -0.459335 0.608213 -0.108473 0.469315 -0.983921 -1.164202 0.127040 -0.137796 -0.335055
no -0.223427 -0.838565 -1.137642 -1.105561 -0.116783 1.185881 0.299878 -0.133683 -0.067568 -0.843965 -0.291763 -0.075276 0.519531 -1.160415 -0.349363 0.909026 0.224784 -0.664491 0.601616 0.412420 -0.324278 0.497864 -0.439859 0.153686 -0.084861 0.031601 1.580164 -0.099534 0.097235 0.438026 -0.376861 -1.254263 -0.913498 -0.223378 0.101923 -0.006378 -0.698172 -0.527576 0.154139 0.618766 -0.916527 -0.567952 -0.379543 -0.216795 1.655333 -0.827861 -1.322739 0.133396 -0.300105 -0.473274
him -0.409816 -0.204711 -0.148216 0.666919 0.949515 0.201382 -0.308649 0.353368 -0.269301 0.817678 -0.112072 -0.187115 -0.362060 -0.518802 0.421183 -0.349183 0.102652 -0.307864 1.228228 -0.678240 -0.100034 -1.183655 -0.357066 -0.159247 0.217023 -0.475792 0.112505 0.553323 0.249060 0.264124 0.114363 0.694527 0.126434 -0.004069 0.300736 -0.449835 -0.314836 0.401133 1.430353 0.044171 -0.505234 0.480677 0.099110 0.261414 0.430088 -1.733366 -0.943425 0.085550 -0.887488 0.272614
people 0.892065 -0.281999 -0.623704 -0.099849 0.114324 0.069847 -0.009291 -0.247742 -0.025934 -0.121312 0.342189 0.097651 -0.501527 -0.355441 -0.877276 0.112860 -1.443847 0.106446 0.697700 -0.072175 -0.123941 -0.499415 -0.330718 -0.752162 0.019567 -0.484951 1.067715 -0.855737 0.867254 -0.571400 0.134603 -0.107822 -0.390381 -0.497970 -0.095072 0.194033 -0.893502 0.279405 1.101007 0.382133 0.034406 0.467675 -0.310516 0.378668 0.476228 -0.852690 -1.108249 0.374719 -0.400611 0.819666
movies 0.918802 0.089783 -0.913252 -0.331019 -0.318555 -0.336463 0.935664 -0.671426 -0.585475 -0.481649 -0.556170 -0.173303 -0.504641 -0.740927 0.078995 0.526882 -0.923459 0.241411 0.521996 0.565967 0.635789 -0.323327 0.045540 -0.357771 0.318503 -0.029726 0.512127 -0.905199 0.574570 0.224371 -0.105055 -0.121809 -0.120671 -0.088940 -0.020338 -0.329309 -0.855127 -0.382858 0.513556 0.039860 -0.059472 1.704547 -0.798868 0.671029 0.574114 -0.892268 -0.482376 -0.382724 -0.215908 -0.318105
how -0.207012 -1.199929 -0.367091 -0.208267 -0.075576 0.331700 -0.342069 -0.392673 0.757039 0.012554 -0.635207 0.428398 0.038677 -1.093353 -0.186899 0.198592 0.003808 0.029658 0.638374 -0.028200 0.223605 -0.929037 -0.514860 -1.226491 -0.061258 -0.297159 1.375621 0.002388 0.649642 0.128153 0.319506 -0.183615 -0.764172 -0.099287 -0.419444 -0.389246 -0.502250 0.593767 0.701105 0.062724 0.218776 -0.513340 -0.102573 -0.173269 0.592965 -0.698550 -1.216008 0.172854 -1.152452 0.423614
because 0.165776 0.033989 -0.565260 -0.285466 -0.605684 -0.130505 0.253464 0.118157 -0.074107 -0.345262 -0.443742 0.270231 -0.090679 -0.468225 -0.251964 0.235418 -0.378209 -0.272739 0.515907 -0.250477 0.183104 -0.322437 -0.239246 -0.566902 0.034110 -0.414824 0.402561 -1.011391 0.636590 0.416276 -0.507452 -0.241382 -0.264400 0.062501 -0.182997 -0.115027 -0.876175 -0.046613 1.156446 -0.029281 -0.332090 0.059991 -0.898029 0.417736 -0.291672 -0.988411 -0.627213 0.215811 0.009892 0.120498
get -0.098684 -0.404048 -0.624922 0.405224 0.039863 0.072880 -0.467747 0.412393 -1.074660 -0.081991 -0.055915 0.144253 0.455487 -0.333231 -0.293066 -0.547855 -0.354088 0.169460 0.567948 -0.421691 -0.341986 -0.650434 0.253087 -0.394401 0.330268 -0.562466 0.440002 -0.369808 0.532882 -0.052589 0.317150 -0.337764 -0.267472 0.173119 0.325784 -0.607828 0.010108 0.726569 1.551171 -0.580730 -0.278023 0.513085 -0.420429 -0.196451 -0.152637 -0.913109 -0.686941 0.179925 -0.999710 0.087466
think 0.410655 -0.385259 -1.122423 0.057142 -0.385884 0.329136 -0.244222 -0.267290 0.052804 -0.196702 -0.248305 -0.036741 -0.180599 -1.074705 0.208815 -0.380408 -0.536947 0.176419 0.463617 0.132749 -0.068750 -0.333536 -0.243935 -0.511888 0.167853 -0.426392 0.814949 -0.532988 0.920493 0.040985 0.098928 -0.052928 -0.057392 0.554878 -0.176108 -0.421275 -1.257100 0.209061 0.747519 -0.463057 0.176678 0.106023 -1.041468 -0.068917 0.171903 -0.747922 -0.942686 0.475674 -0.470304 -0.205339
been -0.247126 -0.223809 -1.320098 -0.713817 -0.111581 0.108478 0.354561 0.475059 -0.759585 -0.716711 -0.632167 -0.079562 -0.558294 -0.150524 -0.650523 -0.482066 0.458868 -0.876329 0.745813 -0.297803 0.430153 0.661589 0.617414 -0.725971 0.316263 0.394429 0.474949 -0.155127 0.986613 -0.011682 1.085087 -0.413225 -0.163014 -0.180587 0.706774 0.061880 -0.443927 1.578694 0.672660 0.149885 -1.149594 0.564931 -1.314534 0.522005 -0.367839 -0.963634 -1.006407 -0.195380 -0.185087 -0.623266
made 0.047078 -0.409981 -0.889166 -0.490421 -0.006211 -0.043615 0.671497 0.050749 0.353062 -0.311103 -1.052545 0.239014 -0.640920 -0.248965 0.201949 0.294687 -0.545698 -0.496851 1.177335 0.011701 -0.201127 -0.238330 0.163531 -0.302737 0.537506 0.010603 0.506274 -0.439986 0.372091 0.213547 0.485816 -0.278416 -0.468212 0.563734 0.702051 -0.655463 -0.638756 -0.147467 0.747976 0.017833 -0.219514 0.642696 -0.672866 0.656217 -0.056801 -1.341352 -0.709750 -0.312875 -0.244474 -0.202448
way -0.101031 -1.195064 0.098099 -0.086798 -0.050106 0.502382 0.103303 0.144453 -0.542928 -0.345161 -0.539621 -0.138084 0.959284 -0.258482 0.224902 0.190556 0.151669 -0.520504 0.805397 -0.523720 -0.086754 -0.500820 -0.374283 -0.728224 0.233735 0.415324 0.822083 -0.235072 0.749018 0.079016 -0.360133 -0.540946 -0.579457 0.130196 0.641372 -0.066584 -0.484225 0.241590 0.828507 -0.106864 -0.088177 0.141219 -0.130641 -0.007531 0.114182 -1.331823 -0.379704 0.036319 -0.521476 -0.788288
do -0.044853 -0.731854 -1.005954 0.487543 -0.541940 0.167622 -0.761286 0.057967 -0.779150 -0.383529 -0.102556 0.124571 0.403493 -0.866658 0.004859 0.059546 -1.074100 0.273367 0.744418 -0.240367 0.297759 -0.388746 -0.223360 -0.820375 0.091708 -0.311013 0.940083 -0.321288 0.276084 -0.021758 -0.020250 -0.206800 -0.267603 0.386916 -0.170291 -0.757844 -0.581460 0.674869 0.936773 -0.193466 0.240264 -0.042622 -0.757861 0.511125 0.081275 -0.446180 -0.620792 0.694621 -0.979795 0.197359
them 0.385901 -0.454970 0.170271 0.095537 0.320124 0.070021 0.089000 -0.072477 -1.069465 0.310269 -0.483066 0.084372 0.990591 0.200840 -0.098785 0.789958 -0.716178 0.324985 1.026025 -0.427151 -0.175884 -0.552010 -0.521675 -0.362585 -0.020677 -0.536276 1.074180 -0.546473 0.809537 0.360979 0.057562 -0.389965 -0.260055 -0.222370 0.519501 -0.501582 0.283796 0.839900 1.259058 0.462816 0.116794 0.605865 0.317523 0.270923 0.552609 -1.088094 -0.422975 -0.154232 -0.441720 0.273993
many 0.973226 -0.262512 -0.698645 0.487266 0.213938 0.625295 0.159064 -0.932356 0.363281 -0.983725 -0.357404 0.243638 -0.800073 -0.958897 -0.790170 0.481374 -0.724587 0.096136 0.793739 -0.223869 0.135213 -0.242228 -0.145778 -0.426015 -0.250527 -0.597105 0.219476 -1.030630 1.449886 0.220145 0.059726 -0.046332 -0.422925 -1.109326 -0.283987 0.289695 -0.427115 0.560998 0.925614 0.475759 0.294788 0.968721 -0.145067 0.453581 -0.601797 -0.716701 -0.775736 -0.330807 -0.532817 0.408978
seen 0.189004 -0.238405 -1.104758 0.174442 -0.484592 -0.292174 0.763577 0.054843 -0.894823 -1.189543 -0.730860 -0.061434 -1.365806 -0.771226 0.263662 -0.162902 0.071425 0.325853 1.209023 -0.098011 0.313475 0.071351 -0.246568 -0.647766 0.513662 0.125265 0.022145 -0.238103 0.439176 -0.453633 0.754745 -0.238252 -0.137065 -0.448405 0.423548 0.207977 -0.489461 0.719359 0.232813 -0.581519 -0.275419 1.835590 -1.200522 -0.004884 -0.278014 -1.436993 -0.831751 -0.760500 -0.326209 -1.009232
characters 0.331177 -0.699849 -0.127367 0.161050 -0.345715 0.059664 0.079299 -0.046797 -0.220895 -0.268884 -0.360856 0.236488 0.802888 0.061617 -0.599077 0.630231 -0.632115 -0.299854 0.336980 0.083289 0.059409 -0.068688 0.007659 -0.779302 0.261156 0.758681 0.796494 -0.092986 1.449417 0.322871 0.352111 -1.248700 -0.731792 -0.058798 0.242265 -0.569891 -0.426350 0.742266 0.343720 0.398987 0.672985 0.268888 0.202070 0.392437 0.291484 -0.883703 -0.156096 0.501109 -0.849370 -0.051499
too 0.444143 -0.666204 -0.195930 -0.205434 0.819141 0.341980 -0.616256 -0.394866 -0.407088 0.002797 -0.029443 0.638253 0.186677 -0.428266 -0.737899 0.068734 0.620367 -0.725323 -0.251277 -0.552222 0.224157 -0.439752 0.573902 -0.244742 0.307230 -0.202194 0.135509 -0.668497 1.503780 -0.295555 -0.039611 -0.756716 -0.979579 -0.243226 0.733462 0.073735 -1.227482 0.874455 1.342420 -0.206503 -0.072446 0.398948 -0.747759 0.177573 -0.298946 0.029457 -0.560429 -0.065350 -0.447242 0.050862
two -0.096915 0.136522 -0.473583 -0.077122 -0.070098 0.091833 0.826281 0.169653 0.340498 -0.165455 0.091026 -0.069363 0.208318 -0.207514 -0.938230 0.898499 -0.734037 0.004344 0.846194 0.233342 -0.470251 -0.569325 0.194087 -1.256097 -0.539322 0.274388 0.784344 -0.334280 1.108299 0.001124 -0.198764 -0.612432 -0.578459 -0.879926 0.827754 -0.323809 -0.144150 -0.157264 0.580493 0.790680 0.417621 1.006353 0.210197 0.809923 0.272434 -0.913521 -0.292518 0.901219 -0.030374 0.680385
character -0.293993 -0.785335 -0.105039 -0.317858 0.301783 -0.162026 0.307310 0.483227 0.417364 0.472658 0.243629 -0.173720 0.042151 0.050553 0.120223 0.211725 0.018049 -1.097397 0.578532 0.043957 -0.322214 -0.407160 0.263256 -0.746512 0.510215 0.423406 0.401439 0.221204 1.413124 0.112844 0.177563 -0.731576 -0.666968 0.068285 0.202709 0.180609 -0.749490 -0.219409 0.741700 0.417930 -0.163310 -0.082259 -0.411800 0.226329 0.746537 -0.861397 0.217578 0.264472 -0.585867 -0.158749
watch -0.075672 0.002701 -0.250895 -0.132248 -0.302571 0.090272 0.164285 -0.840280 -1.048015 0.198708 -0.775014 0.732066 0.514324 -0.108190 0.244768 0.501496 -0.096957 -0.027777 0.431721 0.190562 0.763472 -0.119088 0.125608 -1.004900 0.865179 -0.235334 0.763098 -1.145439 0.399147 0.429410 -0.180357 -0.125878 -0.174821 -0.130795 0.289722 -0.766379 -0.638939 0.767170 1.212034 -0.914379 -0.067078 0.782577 -0.844206 -0.368448 0.545451 -0.319598 -0.924786 0.184992 -0.155751 0.254676
after 0.151932 0.333271 -0.373944 -0.262355 -0.379924 0.215093 0.668185 0.115871 0.204836 0.319908 -1.152959 -0.086473 -0.360301 -0.647237 -0.442281 -0.279327 0.439197 -0.063951 1.116702 -0.656981 0.291737 -0.249555 -0.269071 -1.102435 -0.037522 0.038374 0.643794 -0.213449 0.568417 0.270805 -0.517593 -0.030512 -0.110590 -0.685780 0.483008 0.405625 -0.489623 -0.137119 1.220139 -0.371455 0.070079 0.256051 0.102964 0.605394 -0.002453 -0.504875 -0.870230 0.493395 0.886495 0.551741
could -0.067622 -0.823228 -1.018579 -0.285235 -0.064819 0.224998 -0.403038 0.213006 -0.598793 -0.403164 -0.202384 -0.270534 0.492777 -0.962859 0.012121 0.174069 -0.610460 -0.002631 0.276905 0.047894 0.000984 0.026697 0.297822 -1.151815 0.013287 0.181540 0.680506 0.112751 0.262105 0.202497 0.552725 -0.277387 -0.178077 0.181784 0.371695 -0.663149 -0.455936 0.755883 0.608228 0.056583 0.024519 0.561925 -0.939207 0.226944 0.254627 -0.781238 -0.732203 0.030431 -0.763341 -0.517271
being 0.687289 -0.243852 0.316089 -0.495309 0.290906 0.186823 0.556365 0.386242 -1.131222 0.288984 0.094378 0.005965 -0.060919 -0.099374 -0.199359 -0.509086 0.331512 -0.455837 1.086728 -0.586112 0.246161 -0.124480 0.247178 -0.324572 -0.013041 0.319446 1.207421 0.167949 0.875371 0.212445 0.090846 -1.171756 -0.901362 -0.641949 0.529422 0.343119 -0.068769 0.202265 0.619994 0.453013 -0.219603 -0.079857 -0.276653 0.512905 -0.086884 -0.312731 -0.394481 0.273859 -0.233892 -0.345988
does -0.155001 -0.491040 -1.075091 0.988215 -0.135211 -0.098095 -0.534705 0.318007 -0.596454 -0.242651 0.477712 -0.028922 -0.130661 -0.640043 0.034571 -0.314770 -0.254313 -0.556746 0.707789 -0.565734 -0.159303 -0.415570 -0.411205 -0.358433 0.506599 0.046803 -0.287433 -0.084749 0.369492 0.253087 0.034743 -0.488462 -0.509158 -0.145664 -0.631313 -0.633875 -0.933518 0.062315 0.757631 -0.474515 -0.535516 -0.576980 -1.092280 0.296409 0.082914 -0.864075 -0.052368 0.310916 -0.635983 -0.086096
show 0.105260 -0.167605 0.001759 0.175760 0.329257 -0.104707 -0.465312 -0.135622 0.111450 -0.043372 -0.105453 0.189468 -0.308229 0.035363 -0.461900 0.547295 -0.678788 -0.313995 0.042616 -0.239226 0.080517 0.067819 -0.162684 -0.824872 0.516778 -0.062738 0.225267 0.070442 0.401204 0.199536 -0.392344 -0.514123 -0.354727 0.171161 0.104806 -0.239269 -1.028338 -0.052494 0.903566 -0.113815 0.185323 0.678340 -0.760023 0.742033 0.410666 -1.262892 -0.712060 0.273387 0.225106 0.516002
any 0.452178 -0.710817 -0.448085 -0.733243 -0.029643 0.782508 -0.218973 -0.291588 -0.734184 -1.002391 -0.392217 -0.170188 0.195812 -0.491816 0.388098 -0.260387 -0.359309 0.324099 -0.084969 0.608746 0.627340 -0.460820 -0.249134 -0.534938 0.073565 0.582592 0.630258 0.105683 0.122262 0.180985 0.254179 -0.742633 -0.356050 -0.421061 0.374330 0.212522 -0.354675 -0.090464 0.589276 -0.049638 -0.187495 0.451341 -0.758781 -0.108177 0.825086 -0.931206 -0.855929 -0.181588 -0.603223 -0.827084
little 0.166204 -0.099775 -0.924678 -0.498005 0.806338 0.016233 -0.463853 0.460859 0.250964 0.317589 0.567580 0.078108 0.504748 0.206157 -0.444299 -0.475747 -0.167532 -0.251344 -0.630850 0.084408 -0.200956 -0.611239 0.492472 0.495393 0.414297 -0.143227 0.113098 -0.290038 0.729335 -0.287516 -0.607002 -1.112841 -0.524389 -0.059236 0.599407 0.091212 -1.242000 0.734386 1.002684 0.381674 -0.285791 0.545039 -0.134014 0.290851 0.083836 -0.659712 -1.112331 0.302014 -0.307518 0.245855
never -0.526262 -0.626904 -1.163171 -0.029063 -0.232269 -0.185981 -0.127008 0.628497 -0.588682 -0.349244 -0.641713 0.080593 -0.466543 -0.631272 -0.254538 -0.935382 0.220884 -0.121287 0.369481 -0.361015 0.011384 -0.193602 0.072884 -0.859418 0.341632 -0.159714 0.389630 -0.539288 0.002682 -0.437551 1.015280 -0.136701 0.219215 0.381544 0.389524 -0.259558 -0.568112 0.947179 0.911892 -0.062148 -0.266487 0.144198 -1.093501 -0.339038 -0.721919 -1.466087 -0.791140 -0.349782 -0.416127 -0.397829
ever -0.032641 -0.384771 -1.045744 0.629518 -0.329054 0.196140 0.526089 0.124456 -0.627869 -0.916168 -0.735890 -0.280029 -0.773645 -0.619537 0.544676 0.030478 -0.276761 -0.189457 1.105860 0.019899 -0.063170 0.178540 -0.005840 -0.675921 0.249734 0.271451 0.082802 -0.229743 -0.101037 -0.442276 1.003843 -0.099264 0.239245 0.305383 0.502836 -0.680815 -0.149196 0.382687 -0.009213 -0.316431 -0.176191 1.436565 -1.251854 -0.060027 -0.605824 -1.524709 -0.529971 -0.736813 -0.547300 -0.945328
where 0.299529 -0.358765 -0.551856 0.552633 -0.003156 1.057372 -0.220495 0.559755 0.257668 0.013800 0.345041 -0.648294 0.650696 -0.983527 -0.087987 0.532956 -0.121257 -0.236395 0.752546 -0.680707 -0.515450 0.042752 -0.258338 -0.131418 -0.152384 -0.157229 0.584564 0.511753 0.324188 0.055132 -0.933756 -0.191401 -0.916371 -0.247872 -0.143026 0.004464 -0.118236 0.059960 0.740093 -0.120202 -0.143833 0.615570 0.067300 -0.143356 0.308283 -0.752303 -1.176819 0.564014 -0.016575 0.176592
end 0.298151 -0.803508 -0.131304 0.019711 0.406878 0.692297 0.490069 0.293452 -0.162469 0.160360 -0.754804 -0.544884 0.673870 -0.486236 0.358111 -0.089254 -0.346438 -0.320473 0.560509 -0.896418 -0.777674 0.119294 -0.380390 0.121566 0.660487 -0.133815 0.691967 0.241577 0.943368 0.322560 -0.617039 -0.934396 -0.267060 0.402429 0.000210 -0.044060 -0.696582 0.556360 0.530761 -0.237238 -0.068281 -0.072508 -0.069331 0.161009 0.329202 -0.501710 -0.580184 -0.111457 -0.377086 -0.800026
make 0.149129 -0.518168 -0.707131 0.308400 0.033498 0.709689 -0.159586 -0.416922 -0.121055 -0.486814 -0.247947 0.236611 0.590807 -0.449691 0.436372 -0.036680 -1.153664 -0.084344 0.673767 0.381151 -0.056253 -0.563219 0.069663 -0.130839 0.571695 -0.042862 0.272332 -0.651427 0.385226 0.407658 0.295004 0.077729 -0.061285 0.102650 -0.069726 -0.771502 -0.277986 0.021303 0.879142 0.003958 -0.197584 0.306170 -0.198352 -0.070581 0.838585 -0.753549 -0.521347 0.205530 -0.931603 -0.414468
dont 0.490052 -0.170427 -0.946899 0.558297 -0.445793 0.446382 -0.932909 -0.286386 -0.392824 -0.350496 -0.617683 -0.157413 0.541565 -0.719326 -0.351673 -0.481269 -1.016416 1.079271 0.283735 0.006662 0.527403 -0.423685 -0.392353 -0.624190 0.164471 -0.585804 1.305724 -0.300741 -0.187163 -0.770189 0.048735 -0.178803 -0.127939 0.351481 -0.232553 -0.371875 -0.449561 0.715622 0.933898 -0.753442 0.130181 0.453492 -0.774304 -0.421034 0.311658 -0.375237 -1.078629 0.512888 -0.804853 0.447829
years -0.166657 0.840323 -0.265391 -0.481925 -0.198628 -0.382640 1.031076 -0.519622 0.058082 -0.308216 -1.247357 0.013536 -0.620035 -1.682051 -1.096432 -0.068931 1.370988 0.030705 0.319373 -0.703641 0.345149 -0.226752 0.009619 -0.313656 -0.400105 -0.178630 -0.388429 0.043043 1.346613 0.085282 -0.043670 0.835214 0.176299 -1.287962 0.668263 0.228569 -0.537017 0.584695 1.146024 -0.095173 -0.356546 1.352604 0.009896 0.627552 -0.150199 -0.840939 -0.801406 -0.744659 1.099446 0.846842
between -0.329121 0.034629 0.024805 0.253843 0.453745 0.371350 -0.166072 0.267106 0.559940 0.564512 0.705045 -0.879758 0.565898 0.276962 -0.732756 1.050552 -1.170952 -0.154345 0.909732 0.818713 -1.123067 0.245345 0.354445 -0.533542 -0.296618 0.138517 0.776884 -0.298939 0.243491 0.355292 -0.995565 -0.797359 -0.986381 0.117360 0.080273 -0.718231 -0.427283 0.131834 -0.179928 0.986384 0.708120 -0.086802 0.870915 -0.215715 0.609200 -0.942398 -0.390649 0.512192 -0.356106 0.398702
over -0.487960 -0.137741 0.143090 -0.271972 0.215932 -0.612123 0.330066 0.054242 -0.887166 0.472662 -1.022289 0.069464 0.126439 -0.231495 -0.512863 0.408826 -0.055187 0.502255 0.603547 -0.400818 0.104456 -0.074937 -0.279411 -0.825499 0.459499 0.152303 0.042029 -0.222671 0.573842 0.098733 -0.293836 0.064511 -0.564327 -0.148369 0.312077 0.222984 -0.043947 1.007667 1.266958 -0.723566 0.294001 1.026240 0.326949 0.400315 -0.160134 -0.560441 -0.685923 -0.507708 0.310514 -0.238698
man -0.235089 0.247542 -0.274863 -0.224775 0.619023 0.163606 0.390796 0.309986 -1.170164 0.232254 0.607626 -0.015435 -0.365944 -0.007447 -0.524341 -1.186563 0.600897 -0.709029 0.539648 -1.006635 -0.401932 -0.362327 0.691684 -0.347900 0.241118 0.520304 0.551083 0.589916 0.692577 -0.471197 0.202037 -0.601954 -0.327708 -0.921200 0.474793 -0.309752 -0.383719 -0.311662 1.097761 0.336128 -1.140788 0.141673 -0.244747 0.094663 0.644795 -0.967965 -0.535807 0.857373 0.335440 0.375372
then -0.305082 -0.269869 -0.511887 0.285812 0.139117 0.714534 -0.031520 0.476938 -0.735145 0.327381 -0.075479 -0.401693 0.329725 -0.602804 0.241148 -0.073084 0.284773 -0.145257 1.212688 -0.538674 -0.371258 -0.256378 -0.128048 -0.315922 0.102401 -0.288667 0.455610 -0.220307 -0.021292 0.048511 -0.172749 -0.062507 -0.105603 -0.124382 0.903738 0.040810 -0.240857 0.532416 0.999641 -0.347961 -0.314893 0.405003 0.023201 -0.474322 0.083865 -1.112309 -0.913825 0.015288 0.026343 -0.279066
while -0.265407 -0.031653 -0.215190 0.374126 -0.066021 0.364716 0.046772 0.118052 -0.180219 0.271788 -0.454107 0.066723 0.049665 -0.055729 0.009852 -0.278428 -0.058761 -0.343732 0.556430 -0.533507 -0.060930 -0.427498 -0.023044 -0.510332 0.262302 0.144304 0.162899 -0.245178 0.869219 0.128330 -0.452470 -0.346063 -0.203563 -0.165942 0.467221 -0.202113 -0.615464 0.203016 0.763343 -0.462419 0.253369 0.140162 -0.021011 0.416743 -0.229713 -0.552747 -0.410456 0.511043 0.216061 -0.182115
did 0.023884 -0.291804 -0.306099 0.447840 -0.640095 -0.017628 -0.613834 0.597204 0.079106 0.022836 -0.629274 -0.191805 -0.078328 -1.117595 -0.284057 0.200515 -0.326306 -0.220851 0.095723 -0.278950 0.121907 -0.156556 0.083988 -0.902359 0.225083 -0.246706 0.158039 0.093174 0.351892 0.474211 0.647767 -0.496051 -0.413759 0.845236 -0.284976 -0.530147 -0.617772 0.247566 0.760352 -0.538026 -0.125403 0.335998 -0.745766 0.269687 0.009244 -0.962298 -0.327798 0.345626 -0.687340 0.311390
these 0.322538 0.295734 -0.576492 0.342414 0.135434 -0.164312 0.083957 -0.572020 0.249560 -0.477668 -0.535982 -0.020045 0.250214 -0.600138 -0.988968 0.490668 -1.310885 0.909345 0.373471 0.355061 0.112916 -0.582069 -0.005459 -0.512441 -0.552375 -0.020232 0.621317 -0.571563 1.213587 0.001642 0.064525 -0.186065 -0.122032 -0.469404 0.398847 -0.606792 -0.241161 0.080143 0.524552 0.920224 0.796035 1.055483 0.158358 0.887848 0.258392 -0.890501 -0.174144 0.050964 -0.761033 0.698247
here 0.110494 -0.655038 -0.570621 0.440692 -0.077380 0.324949 0.198314 0.199618 -0.285699 -0.255044 -0.173323 0.085378 -0.337499 -1.082581 0.093792 0.115912 0.005128 -0.361936 1.200822 -0.505910 -0.052035 -0.027014 -0.210940 -0.306556 0.254586 -0.136187 0.450070 0.201447 0.698775 0.175772 0.049928 -0.517314 -0.849424 0.009390 -0.296977 -0.242120 -0.842391 0.022971 0.316833 -0.143329 -0.114765 -0.147361 -0.855984 0.176802 0.244007 -0.539248 -0.144196 0.042532 -0.690147 -0.587064
through 0.084461 -0.475705 0.354858 -0.026344 0.104440 -0.238992 0.130893 -0.069824 -1.008868 -0.000676 -0.671672 -0.219195 1.009820 0.219246 -0.328318 -0.162058 0.117551 -0.233912 0.511032 -0.590079 -0.691784 0.131630 -0.884792 -0.613459 0.733161 0.251288 0.849243 0.112846 0.223300 -0.032588 -0.952746 -0.193269 -0.073160 0.073241 0.390413 0.338022 0.018732 0.332912 0.997531 -0.114866 -0.482879 0.501561 0.409780 -0.623505 -0.199254 -1.609327 -0.527711 -0.805213 0.230271 -0.666227
star 0.297927 0.121153 -1.012910 0.259144 -0.464979 -0.139567 0.718532 0.511263 -0.254758 -0.525791 -0.166248 -1.283442 -0.113295 -0.165880 -0.370268 -0.120324 -0.499344 -0.183113 0.304233 -0.873487 0.053081 0.646835 -0.084103 -0.684406 0.076092 0.298222 -0.614652 0.695949 -0.595404 1.393164 -1.311398 -0.727374 0.764276 0.288794 -0.831257 -0.904894 -0.766959 0.346771 -0.169321 0.021221 -0.119374 0.885048 -0.311738 0.524286 0.383142 -1.446804 -0.468361 0.220989 0.800212 0.008471
say 0.084135 -0.648483 -0.906332 -0.261027 0.037571 0.286374 -0.245327 -0.461670 -0.292175 -0.053530 -0.334704 -0.066782 -0.006118 -1.110747 0.334496 -0.152080 -0.393555 0.322983 0.210417 -0.006034 0.327575 -0.392168 -0.080461 -0.955927 -0.227631 -0.396794 0.821567 -0.363090 0.547764 0.359853 0.155364 0.129774 0.071800 0.388004 -0.130821 -0.550954 -0.718489 0.724922 0.728453 -0.085379 0.128203 -0.039224 -0.965476 0.236978 0.270208 -0.486562 -0.780592 0.134001 -0.732188 0.190730
us 0.128764 -0.804775 0.293241 0.319310 0.685227 0.147964 -0.165742 -0.374836 0.296057 -0.317267 -0.745861 0.746510 0.291484 -0.118912 0.304685 -0.054782 -0.452082 0.516511 0.799247 0.108462 -0.340578 -1.128829 -1.454309 -0.378881 0.216903 -0.066417 0.395351 0.305908 0.415581 0.136294 -0.056039 -0.190087 0.117332 -0.391988 -0.200914 -0.107418 -0.027613 -0.022805 1.203223 0.150164 0.280770 0.192653 0.218309 0.225781 0.552494 -1.527769 -0.601299 -0.339676 -0.618309 -0.067917
such 0.095045 -0.385343 -0.454381 -0.180366 -0.238184 -0.424403 0.051755 0.005107 0.137665 -0.728258 -0.652791 0.559345 0.257315 -0.694363 -0.386505 0.150020 0.335517 -0.585701 0.478426 0.017782 -0.166911 0.138712 -0.071140 -0.278288 0.494076 0.376281 0.216212 0.134705 0.907599 0.264102 0.460596 -0.555101 -0.561142 -0.163445 -0.288740 -0.756946 -0.304298 0.204345 0.300388 0.203462 -0.348204 0.430548 -0.077597 0.269095 0.504134 -1.017824 -0.435122 -0.468922 -0.437184 -0.247157
scene 0.078674 -0.155730 -0.473732 0.237545 0.454696 1.033246 0.315468 0.384068 0.664367 -0.020010 -0.526616 -0.615351 0.197837 -0.778396 0.020867 0.758681 -0.086684 -0.720663 0.986826 -0.590784 -1.110994 0.890541 0.061126 -0.346566 0.321911 0.061458 0.430084 0.611060 0.097313 0.498016 -0.758803 -0.715788 -1.000294 0.105862 0.257430 -0.748006 -0.388657 -0.132208 0.513131 -0.221079 -0.018840 0.525509 -0.211851 0.341116 0.269187 -0.256652 -0.672530 0.097941 0.830461 -0.377300
young -0.064079 0.640933 0.200171 -0.173726 0.171055 -0.414003 0.183854 0.454849 0.139619 0.916185 1.032262 0.306166 0.265153 0.543418 -1.060519 -0.539495 -0.088332 -0.510034 -0.194059 -0.208666 -0.277701 -0.694796 1.121434 -0.254282 0.181057 0.507131 0.807626 0.204939 1.742619 -0.760814 -0.091869 -1.065223 -0.389594 -0.883937 0.208749 -0.271547 -0.673491 -0.000514 0.575425 0.685014 -0.487149 0.238656 0.540238 0.243947 0.354043 -0.653541 -0.636554 1.356893 -0.022557 1.015395
know 0.528744 -0.292084 -1.125333 0.371184 -0.617231 -0.142708 -0.290234 -0.152931 -0.262173 -0.276063 -0.317678 -0.030675 -0.070170 -0.776203 -0.221518 -0.680635 -0.452257 0.577441 0.697543 -0.419903 0.175350 -0.407415 -0.263284 -0.792435 0.061280 -0.438458 1.279960 0.009989 0.517076 -0.436636 0.135605 -0.157631 -0.285762 0.078672 -0.324255 -0.488275 -0.370200 0.612884 0.812620 -0.465644 -0.105383 -0.012686 -0.921755 0.180802 -0.191118 -0.521116 -0.783835 0.282513 -0.964843 0.352351
still 0.213951 -0.346804 -0.159533 -0.134374 0.159105 0.405423 0.478277 -0.595462 -0.033129 0.212305 -0.410284 0.537828 0.229110 -0.356928 0.056723 -0.172455 0.085108 -0.253151 0.295808 -0.607233 0.362453 -0.498084 0.232540 -0.049019 0.094599 -0.264500 -0.051120 -0.732752 1.078213 0.401928 -0.163573 0.146452 -0.164521 -0.013312 0.117430 -0.569623 -0.912140 0.606984 0.560820 -0.357462 -0.226746 0.021812 -0.098655 -0.058721 0.122263 -0.264402 -0.655362 0.502741 -0.209443 0.012517
back 0.148792 -0.727856 0.211721 0.302330 0.288068 0.696293 -0.299194 -0.005535 -1.098009 0.167794 -0.634767 -0.686997 0.582592 -0.039872 0.132558 -0.229177 0.479142 -0.041388 0.664019 -1.517306 0.019416 -0.296598 -0.454467 -0.236958 -0.096939 -0.305271 0.160635 0.272153 -0.079331 0.200761 -0.918491 -0.069936 0.279797 -0.052246 0.822532 -0.011474 -0.041121 0.850530 1.054000 -0.027938 0.008620 0.444802 0.750292 -0.252977 0.022256 -1.873242 -0.826943 0.105898 0.243773 0.426816
though -0.060047 -0.285687 -0.558398 0.153466 -0.407022 0.307487 -0.427157 -0.025139 0.311201 -0.241948 -0.454427 0.126153 -0.051925 -0.533791 -0.074959 -0.136600 0.163222 -0.195278 0.262021 -0.030206 0.350589 -0.400716 0.093479 -0.639104 0.284961 0.029605 -0.020580 -0.042895 0.583607 0.376760 -0.014250 -0.791527 -0.925129 0.205719 0.091836 -0.807184 -1.045170 0.307499 0.496391 -0.520704 0.187171 -0.028318 -0.706882 -0.023416 -0.033586 -0.460392 -0.234719 0.145271 -0.459652 0.033393
acting 0.160692 -0.171459 -0.101086 0.623851 -0.266604 -0.506097 0.054502 -0.446142 -0.021781 0.616459 -0.338758 -0.258575 0.127109 -0.099377 -0.066460 -0.148477 -0.353919 -0.615991 0.381229 -0.119365 0.351351 0.170203 0.218140 -0.107744 1.082093 0.691214 -0.050039 -0.518601 1.443231 0.163836 0.041460 0.025076 -1.059656 0.910028 -0.368756 -0.661487 -1.371021 -0.202426 0.191673 -0.725120 0.273727 -0.070994 -0.268046 0.348652 0.268208 -0.709793 0.302212 -0.037218 -0.560412 -0.453647
real -0.149546 -0.394442 -0.626970 -0.058268 -0.216511 0.228536 -0.293997 -0.187384 0.343364 -0.339211 0.016264 -0.195094 0.814910 -0.463232 -0.463440 -0.118203 -0.275849 -0.208796 0.531889 0.223940 0.323623 -0.436870 -0.383459 -0.639081 0.129027 0.281743 0.822914 0.045922 0.637622 -0.011990 -1.077453 -0.365259 -0.898066 0.005540 -0.389173 -0.142460 -0.741698 0.355480 0.353534 0.348075 -0.150804 -0.154757 0.169205 0.032789 0.470675 -0.665913 -0.872541 0.467441 -0.737586 -0.109026
new 0.822111 0.175477 0.140185 0.306758 0.055352 0.141288 -0.463252 -0.481381 -0.018735 -0.044822 0.433434 -0.337460 0.345601 -0.259599 -0.490507 -0.789407 -0.446426 0.172871 -0.016530 -0.188690 0.469695 -0.313204 0.028971 -0.445867 0.058434 0.353528 -0.369689 -0.045342 -0.132703 0.347102 -1.274970 -0.571985 0.148602 -0.210622 -0.373314 -0.604408 -1.025045 -0.310547 0.353275 0.262377 0.183895 0.375064 -0.040665 0.588496 -0.512227 -1.320649 -0.313809 0.542566 0.080142 0.318338
makes -0.077022 -0.320482 -0.248956 -0.137266 0.192029 0.322729 -0.044617 -0.373071 1.018131 0.015226 -0.641402 0.590325 -0.064764 0.073207 0.582873 0.299169 -0.598861 0.038699 1.194216 0.470531 0.072868 -0.888479 -0.507837 -0.001072 0.775396 -0.316110 0.443240 -0.178561 0.082062 0.157637 -0.356967 -0.013057 -0.544223 0.332449 -0.174457 -0.199668 -0.746304 -0.514961 0.853012 -0.243451 0.036583 -0.265422 0.220786 -0.203004 0.700856 -0.983911 -0.585469 0.080623 -0.857755 0.146540
world 0.421864 -0.469813 0.009505 0.106975 0.532544 0.166497 -0.132297 -0.341865 -0.057917 -0.411296 -0.188027 -0.132897 0.745023 -0.080539 0.128517 -1.095310 -0.354709 -0.167834 0.484677 -0.086124 0.380397 -0.175069 0.094585 -0.568922 0.376878 0.651062 0.605550 0.197835 0.348063 0.109837 -1.262416 -0.388051 -0.393095 -0.439253 -0.863968 -0.413882 0.145908 0.265671 0.499756 0.493775 0.218713 0.495762 0.559655 -0.062858 -0.243013 -0.975498 -1.088822 -0.090505 -0.161799 -0.315108
work -0.176753 -0.392714 -0.424738 0.711668 -0.158580 -0.041457 -0.071566 0.256446 -0.646103 -0.069270 -0.022084 0.107831 0.192802 0.019540 0.689209 0.372602 -1.007865 -0.960610 0.938509 -0.148866 0.080293 -0.036401 0.044759 0.155100 0.814376 0.302740 -0.094209 -0.382372 0.964572 0.447774 0.112011 -0.027428 -0.597383 0.210131 -0.521451 -0.684286 -0.519234 0.133454 0.479965 -0.094222 -0.060776 0.095553 -0.325563 0.923572 0.600215 -0.739172 -0.287818 -0.021921 -0.508411 -0.973483
actors 0.569962 -0.082718 -0.164273 0.663011 -0.445665 -0.274837 0.008973 0.060253 0.249864 -0.240938 -0.030786 0.356322 0.067100 -0.152966 -0.710488 0.467740 -1.189407 -0.371561 0.244689 0.059789 -0.127278 -0.056800 0.347521 -0.590284 0.119860 0.446206 0.304908 -0.149379 1.512498 0.123189 0.920605 -0.471348 -0.263984 0.383815 0.194787 -0.792877 -0.710819 -0.241399 0.285713 0.209761 0.396804 0.677036 -0.277781 0.970085 0.018105 -1.006297 0.137322 0.721165 -0.731946 0.092765
those 0.210698 -0.093883 -0.781071 0.224829 -0.054059 0.249709 0.283978 -0.340223 -0.229717 -0.502639 -0.057210 0.053597 -0.144489 -0.528442 -0.239443 0.378619 -0.711196 0.188079 0.454586 0.293316 0.063224 -0.649633 0.053066 -0.290358 -0.246130 -0.032355 0.630112 -0.757207 0.930644 -0.186326 0.037654 0.057980 0.056808 -0.664323 0.635335 0.034593 -0.162444 -0.228584 1.024327 0.249018 0.176785 1.188134 -0.170773 0.726818 0.469019 -0.692675 -0.686964 0.152645 -0.316378 0.107841
both 0.210360 -0.302763 -0.343090 0.607514 -0.403586 -0.106368 0.024528 0.494261 0.004242 -0.150157 0.048000 0.109282 -0.196914 -0.340970 -0.439751 0.673444 -0.892739 -0.202588 0.713556 0.306287 0.104550 0.082283 0.189615 -0.582784 -0.031635 0.354053 0.425454 -0.078322 0.819115 0.604953 0.514137 -0.198073 -0.377455 -0.064292 0.016322 -0.099791 -0.112457 0.443024 0.142613 0.201913 0.583893 0.708282 0.241376 0.675711 -0.027951 -0.773961 -0.345457 0.351315 -0.739810 -0.009194
find 0.245131 -0.312555 -0.330632 -0.278866 -0.103416 0.599168 -0.517715 -0.205853 -0.839638 0.077314 0.332216 0.136088 0.654107 -0.363243 0.287746 0.066468 -0.318060 0.017521 -0.086592 -0.200258 0.053884 -0.057410 0.250271 -0.772404 -0.023617 -0.392100 1.161095 -0.483970 0.665269 0.260315 -0.101634 0.330445 -0.273996 0.028230 0.361933 -0.394233 -0.036140 0.719982 0.982532 0.105755 0.108788 0.087994 -0.219620 -0.331181 0.074048 -0.541315 -0.993552 0.103171 -0.619737 -0.421621
scenes 0.781407 0.192859 -0.402562 0.474563 0.272117 0.797560 0.184626 -0.196060 0.710686 -0.064353 -0.302094 -0.103214 -0.221713 -0.123721 -0.584163 1.078330 -0.773651 -0.353954 0.635677 -0.176965 -0.499365 0.659341 0.297123 0.374496 0.303432 -0.374640 -0.003836 -0.590866 1.333127 0.782423 -0.398277 -0.468264 -1.157248 -0.177866 0.416328 -0.162605 -0.466314 0.232306 0.551227 -0.003525 0.562964 0.679066 0.284809 0.198104 -0.104029 -0.350013 -0.559168 -0.353113 0.041644 -0.092150
your -0.573803 0.780132 -0.743605 0.160722 -0.693939 0.630611 -0.461162 0.403477 -0.591594 0.072639 -1.010121 -0.492196 0.629002 0.337431 0.068907 -1.274422 -1.211805 0.887602 0.636230 0.238057 0.822265 -0.242896 0.254885 -0.675510 0.754052 -0.132277 0.696006 -0.308587 -0.400828 -0.140784 -1.099297 -0.283908 -0.261732 -0.556900 0.556627 -0.254224 -0.100332 0.937155 1.123414 -0.618411 0.377818 -0.310658 0.353642 -0.715977 -0.058289 0.304100 -1.118500 0.320789 -0.079286 -0.923363
lot 0.324983 -0.700463 -0.909187 -0.333833 0.348761 0.075978 -0.232069 -0.481551 0.376330 -0.421577 -0.266041 0.241292 0.188014 -0.286319 -0.078124 0.070781 -0.389996 -0.124031 0.147497 0.156708 0.202632 -0.314571 -0.297977 0.382915 0.287375 -0.178942 -0.058829 -0.149699 0.485876 -0.222386 -0.286825 -0.693447 -0.289347 0.585082 -0.020099 -0.131632 -1.241225 0.761479 0.563713 -0.004713 -0.365667 0.753758 -0.458633 0.595729 0.037622 -0.825549 -0.941085 -0.071283 -0.459409 0.004917
should 0.136909 -0.123626 -0.805850 0.307172 -0.003322 0.272473 -0.459253 -0.415014 -0.587671 -0.294149 -0.265317 -0.216051 0.009066 -0.472333 0.334246 0.051554 -0.636863 0.089897 0.528677 0.347414 -0.073001 0.157452 0.101510 -0.854560 0.596810 0.147566 0.584959 -0.338833 0.337163 -0.059693 0.160028 0.363748 0.105566 -0.459870 0.009857 -0.650589 -0.354810 0.219311 0.604189 -0.659391 0.025755 0.450204 -0.990504 -0.301560 0.528108 -0.456769 -0.987246 -0.134922 -0.157378 -0.808770
again -0.521235 -0.428493 0.091428 0.323748 0.084899 -0.218099 -0.042873 -0.308212 -0.828613 0.751360 -0.627719 0.174810 -0.026557 -0.154289 -0.401731 0.659346 0.482440 -0.132372 0.666147 -0.263377 0.310412 0.158654 -0.379067 -1.334742 0.409477 0.202410 0.208650 -0.449054 -0.115143 0.529837 -0.488905 0.268792 -0.097861 0.070636 0.495441 0.045339 -0.700185 1.183603 0.804913 -1.118201 0.427821 0.594154 -0.149036 -0.416264 -0.313643 -0.942476 -0.818163 0.090489 0.256102 0.201279
every -0.112447 -0.049261 -0.097845 -0.685142 -0.605323 0.159003 0.522641 -0.043135 -0.314335 -0.346459 -0.838130 0.286322 0.950972 -1.003581 0.414334 0.076553 0.177009 -0.304516 0.374614 -0.217932 -0.295568 -0.145877 -0.432790 -0.551095 0.449695 0.005261 0.522196 0.003627 0.159933 0.111869 -1.410165 -0.156031 0.641793 -0.442918 -0.405663 -0.237290 -0.047314 -0.143748 1.069367 -0.247273 -0.746047 0.874358 0.074632 0.014211 0.599581 -0.477174 -0.583089 0.219939 0.636057 -0.575871
another 0.029396 0.185155 -0.153153 -0.632052 -0.530076 0.291588 0.282786 -0.028449 -0.433426 -0.134312 -0.398708 0.205644 0.413488 -0.362919 0.124942 0.001085 -0.071035 -0.748625 -0.040193 -0.238041 0.094641 -0.334186 0.156191 -0.288376 0.450936 0.113409 0.639539 -0.323436 0.322774 0.443303 -0.122061 -0.580979 -0.279407 -0.473473 0.186465 -0.489549 -0.137447 -0.632511 0.933768 0.265354 -0.685300 -0.060401 -0.420288 0.294076 0.762957 -0.646542 -0.521348 0.296822 0.279088 -0.160071
same -0.432162 -0.388833 -0.053018 -0.265468 -0.136092 0.362573 0.294200 -0.077206 0.455001 0.161709 -1.054264 -0.340261 0.654500 -0.801443 -0.275417 -0.339103 -0.008180 -0.346371 0.341944 -0.198606 -0.518106 -0.088326 0.106135 -0.868594 0.280524 0.557499 0.288403 0.008861 0.776169 -0.154210 -0.944031 -0.561840 0.210157 0.001254 0.095709 -0.263588 -0.793434 -0.055014 0.560981 -0.474912 0.129136 0.428457 0.040067 0.233644 0.346821 -0.172873 -0.273437 0.437013 0.264044 -0.247633
old 0.014540 0.643735 -0.196021 -0.183451 -0.073076 -0.042852 0.515529 -0.020795 -0.538444 0.118786 -0.091997 -0.216424 -0.309316 -0.665624 -0.644224 -0.907721 0.860906 -0.107811 0.649086 -0.977524 -0.188315 -0.493028 0.274111 0.085758 -0.016232 0.063606 -0.112455 -0.461089 1.196842 -0.234232 -0.451163 0.050678 -0.213190 -1.033007 0.498350 -0.181048 -0.628336 0.063699 0.828112 -0.185243 -0.542823 0.519470 0.549194 0.163683 0.321059 -0.447746 -0.696832 0.497434 0.899820 0.529895
quite 0.093668 -0.440114 -0.345473 0.072253 -0.215852 -0.085712 0.100018 -0.239582 -0.141332 0.015568 -0.187092 0.572456 0.318523 0.060516 -0.332622 -0.077185 0.307234 -0.525018 0.126214 -0.347072 0.369195 -0.393176 -0.057120 -0.148661 0.729485 -0.164263 0.221779 -0.550773 1.113399 -0.064949 0.204875 -0.574049 -0.769843 0.206621 -0.134887 -0.266347 -0.861432 0.656969 0.664551 -0.444198 -0.405454 -0.244991 -1.201766 0.113717 -0.015939 0.355756 -0.174296 0.282985 -0.573031 -0.190702
job -0.139256 0.150001 -0.318617 1.355068 -0.493796 -0.342009 -0.688471 0.918309 -0.262571 0.394896 -0.230228 0.279301 0.074852 -0.205714 -0.114358 -0.079417 -0.244090 -1.164800 0.666703 -0.506968 -0.101289 0.091790 -0.391715 0.162081 1.130935 0.091097 -0.677910 0.096741 0.883748 0.398674 0.584427 -0.487093 -0.738898 0.155167 -0.829661 -0.492078 -1.044132 -0.318281 0.639111 -0.614427 -0.862418 -0.331024 -0.690842 0.566212 0.463775 -1.194118 0.174577 0.092702 -0.512904 -0.297318
always 0.023338 -0.233290 -0.257618 0.142215 0.252615 -0.104189 0.079313 -0.189611 -0.505200 -0.107073 -0.210244 0.432595 -0.038340 -0.338361 -0.278912 -0.499164 0.064122 -0.260077 0.516651 -0.276702 0.244899 -0.253254 0.495040 -0.535754 0.291748 -0.149606 0.215497 -0.812797 0.566394 0.136983 0.335738 0.246705 -0.210465 0.170947 0.098241 -0.719994 -0.284961 0.525757 0.880722 -0.167152 -0.247626 0.522128 -0.751758 -0.065546 -0.336528 -0.383509 -0.363931 -0.044503 -0.618149 -0.121914
now 0.124092 0.201158 0.244954 0.303533 0.226777 0.017945 0.050530 -0.099415 -1.071205 0.428471 -0.147786 0.348853 0.316450 -0.873136 -0.020057 -0.296200 0.043357 0.113888 0.685867 -0.761617 0.232632 -0.125962 0.016687 -0.573405 -0.297584 -0.355963 0.243781 -0.409512 0.703326 0.666283 -0.562736 0.211189 -0.151764 -0.327981 0.074291 -0.490155 -0.616294 0.522809 0.769746 -0.235791 0.153059 0.043896 -0.161335 0.033412 -0.225307 -0.438646 -0.340843 0.431230 0.011755 0.043710
role -0.217970 -0.155720 -0.119829 0.224036 -0.088948 -0.187663 -0.109943 0.514234 0.214310 -0.097456 0.081745 0.130952 -0.263805 -0.363849 0.508196 -0.580662 -0.008629 -0.367584 0.262714 -0.156468 0.265826 -0.418942 0.356811 -0.706880 0.738087 0.703999 -0.456650 1.347422 0.884877 0.253941 0.538656 -0.389433 -0.500434 0.378932 -0.071873 -0.326489 -0.939594 -0.614403 0.373067 -0.359146 -0.168817 0.377253 -0.299456 0.093326 0.580346 -1.275921 0.394985 0.528511 -0.601091 -0.562481
something 0.285942 -0.589210 -0.491141 -0.052993 0.596816 0.321211 -0.539364 -0.595133 -0.335704 -0.238502 0.131466 0.161675 0.211594 -0.079445 0.121136 -0.218517 0.392501 0.190029 -0.126105 -0.401261 1.008744 -0.822369 -0.227111 0.142038 0.054976 -0.259141 0.515180 0.021595 -0.106691 -0.016924 -0.567344 -0.492068 -0.670910 0.127461 0.408502 -0.318740 -0.989707 0.483812 0.910296 0.065588 -0.102837 -0.561092 -0.553549 0.103686 0.096095 -1.012309 -0.670669 0.328408 -0.773977 0.706139
better 0.124389 -0.532879 -1.138975 -0.445460 0.287807 0.306345 -0.378532 -0.129600 -0.252709 -0.443868 0.083006 -0.394278 -0.426432 -0.300820 -0.096447 -0.330120 -0.498257 0.116607 -0.029377 0.445968 0.458436 -0.272237 0.225326 -0.496177 0.292743 0.494485 0.004839 0.292155 0.358872 -0.016953 0.535700 -0.452803 -0.530662 0.120903 0.892852 0.072537 -0.951237 0.380974 0.492456 -0.438709 -0.104706 0.449453 -1.199319 0.367803 0.136022 -0.507138 -0.547605 -0.151564 -0.571256 -0.742214
cast 0.831268 0.115036 0.050335 0.735150 -0.401019 -0.968435 0.388957 -0.311382 -0.279152 0.066689 -0.252841 0.320205 0.247980 -0.261750 -0.496257 0.509755 -1.014184 -0.434384 0.571768 -0.373568 -0.314639 0.719316 0.566888 -0.412979 0.498501 0.708036 0.197752 0.237356 1.869477 0.430392 0.924996 -0.349148 -0.296797 0.062965 -0.266569 -1.247416 -0.716512 -0.392769 0.004850 -0.014906 0.478745 0.346173 -0.115952 0.934391 0.539614 -0.632614 0.765083 0.225924 -0.207461 -0.385951
director 0.080666 -0.543572 0.160359 0.131910 -0.280821 -0.050664 0.195200 0.207412 0.188322 -0.191051 -0.141672 0.208313 -0.590328 -0.078871 0.663628 -0.565699 -0.047980 -0.900324 0.401811 0.122199 -0.192754 -0.233698 0.604021 -0.650380 0.274810 0.658775 0.258255 0.187826 0.093330 0.279963 1.069321 -0.081413 0.115938 0.465443 0.009410 -0.764040 -0.158726 -0.529542 0.172745 -0.261894 -0.300608 0.234546 -0.297614 0.266685 0.306969 -1.212500 -0.271880 0.081153 -0.309334 -0.298771
times 0.602306 -0.789241 -0.435796 -0.196214 0.283635 0.245642 0.662522 -0.622767 0.176933 -0.097965 -0.304469 -0.017373 0.437374 -0.462688 -0.886507 0.960833 0.387866 -0.628557 0.404268 -0.655895 -0.618976 -0.089175 -0.649146 -0.706981 0.063174 -0.865959 -0.151046 -0.600636 1.025695 -0.341922 -0.222761 -0.064032 -0.710085 -0.583655 0.359860 0.687892 -0.218890 1.190548 0.583660 0.052564 -0.409511 1.476569 -0.246479 0.407305 -0.211033 0.241690 -0.837712 -0.650198 0.055274 0.002135
things 0.284808 -0.981092 -0.601502 0.000923 0.185552 -0.048119 -0.080635 -0.153865 0.362741 -0.321284 -0.702144 0.527866 0.939581 -0.904453 -0.555838 0.253988 -0.546383 -0.039896 0.183034 -0.336498 -0.200512 -0.697738 -0.601469 -0.128005 -0.023865 -0.309439 0.708078 -0.053049 0.843536 -0.288132 0.064600 -0.241820 -0.253265 -0.211416 0.092532 -0.026550 -0.199259 0.399761 0.893343 0.921516 0.028700 0.169919 0.149956 0.736991 0.267820 -0.579044 -0.524530 -0.224770 -0.909795 0.221125
before -0.167414 0.150540 -0.483129 0.214058 -0.501039 0.043390 0.269673 0.580052 -0.284235 -0.347288 -0.896617 -0.239815 -0.675966 -0.788587 -0.077810 -0.269482 0.391496 0.156267 0.747225 -0.672795 0.384760 -0.438422 -0.051353 -0.736926 -0.239397 -0.127737 0.212225 -0.122695 0.083628 -0.017042 0.163376 0.006798 -0.189139 -0.388497 0.893155 0.117448 -0.184880 0.533247 0.872372 -0.192344 0.143088 0.942996 -0.084295 0.548002 -0.233780 -1.063850 -0.582666 0.157616 0.310675 0.279532
plot 0.209843 -0.682916 -0.072688 -0.294483 0.184751 0.427211 0.141149 -0.302771 -0.023314 -0.302006 -0.661399 0.252710 0.483267 0.123386 -0.006470 -0.014978 0.142909 -0.239854 -0.066007 -0.348114 -0.073613 -0.058618 -0.054216 -0.005278 0.380787 0.119711 0.401889 -0.348317 1.197057 0.364529 -0.139117 -0.941545 -0.564469 -0.041487 0.290686 -0.343392 -0.646317 0.701381 0.250954 0.190882 0.355128 -0.258112 -0.041999 -0.160483 0.116875 -0.478696 -0.396793 -0.296536 -0.191826 -0.373260
watching 0.339855 0.157317 0.139609 0.048133 -0.084183 0.516113 0.081910 -0.487401 0.125902 0.628832 -0.831819 0.064526 -0.164470 0.142173 -0.122297 -0.037477 -0.317514 0.201051 0.850799 -0.193396 0.414894 -0.192928 -0.475789 -0.708033 0.450924 -0.253861 0.680497 -0.598873 -0.078388 -0.036392 -0.108802 -0.096237 -0.090601 -0.418285 0.583596 0.462987 -0.970578 0.324234 0.848570 -1.129312 0.259296 0.373935 -0.532379 -0.326660 0.300475 -0.166050 -0.968175 0.783526 0.455315 0.940024
go -0.194744 -0.354632 -0.097770 0.375165 0.403078 0.319860 -0.600987 -0.199217 -1.048770 0.198504 -0.687074 -0.156449 0.713749 0.039202 0.105681 -0.119976 -0.404272 0.124720 0.461775 -0.326274 0.065461 -0.270094 -0.211022 -0.496012 0.324256 -0.506962 0.556791 -0.466847 0.176496 -0.196782 -0.042783 -0.025226 0.132194 0.114248 0.520045 -0.340717 -0.142882 0.645620 1.160657 -0.333026 0.166839 0.137035 -0.421307 -0.423923 0.058656 -0.608834 -0.523780 -0.122994 -0.297755 0.158795
part 0.267008 -0.005382 -0.344257 -0.233738 -0.028813 0.173500 0.313140 0.274510 0.567939 -0.436757 -0.384096 -0.132492 0.017120 -0.603411 0.445290 0.137756 -0.401715 -0.122536 0.046923 -0.462264 -0.217768 -0.409424 -0.045167 -0.182783 0.435055 -0.341297 -0.222643 0.425145 1.007105 0.372718 -0.317324 -0.286725 -0.606921 0.297575 -0.128980 -0.526474 -0.435526 -0.083872 0.663184 -0.008329 -0.234919 0.701794 -0.511918 0.693380 0.109776 -0.464032 -0.160548 -0.180362 -0.165293 -0.502895
bit 0.273010 -0.457068 -0.467639 -0.730489 0.784706 0.185785 -0.176975 -0.262443 -0.185332 -0.013414 0.072571 -0.066167 0.590395 -0.006715 -0.269232 -0.204011 0.467175 -0.246736 -0.636386 -0.002846 0.005020 -0.517374 0.198423 0.252416 0.509743 -0.081049 0.090602 -0.359379 1.113422 -0.294247 -0.499209 -0.907798 -0.443525 -0.159386 0.462449 -0.009314 -0.869556 0.952408 0.794175 -0.199259 -0.614936 0.419412 -0.600754 0.183160 0.420958 0.331816 -0.764941 -0.014116 0.153104 -0.301191
each -0.235119 -0.479854 -0.296355 -0.293617 -0.498825 0.296471 -0.068488 0.496190 0.042354 -0.304378 -0.011861 0.289553 0.659374 -0.405585 -0.163739 1.078637 -0.940361 -0.275523 0.741762 0.540011 -0.127974 -0.640289 0.205563 -1.297039 -0.265890 0.097759 0.946600 -0.119898 -0.107740 0.220621 0.130665 -0.426169 -0.240709 -0.317168 0.797632 -0.223288 0.505136 0.044772 0.722566 0.654932 0.090929 0.868952 0.677546 0.570059 0.663670 -0.674727 -0.771466 0.769348 -0.496984 0.250345
yet -0.214012 -0.353040 -0.193814 -0.042526 -0.017801 0.015255 -0.209781 -0.327089 -0.768105 -0.107980 -0.368312 0.093220 0.011922 0.112229 -0.114887 -0.080800 0.115348 -0.290589 0.037563 0.033505 0.622185 -0.142320 0.345186 -0.094389 0.264934 0.206973 0.125234 -0.830616 0.408230 0.550864 -0.195304 -0.371698 -0.435585 -0.160501 -0.153336 -0.428686 -0.368428 0.855584 0.209478 0.161609 0.091666 -0.056944 0.252786 -0.335458 0.024676 -0.388719 -0.673544 -0.350038 -0.463189 -0.300808
big -0.280612 0.455560 -0.544035 -0.750206 -0.286114 0.717540 0.227471 0.650682 -0.356413 -0.327887 -0.069023 -0.134965 -0.158172 -0.060804 0.103407 -0.303285 -0.648463 -0.264620 -0.110250 0.313145 -0.238006 0.419012 -0.167477 0.235119 0.428766 0.124502 0.035420 -0.134089 0.228274 0.328387 -0.878850 -1.330601 0.006262 -0.091206 -0.176592 -0.217703 -0.638938 0.090293 0.767305 0.072979 -0.560059 0.954519 -0.289830 0.344206 0.188120 -0.604313 -0.961669 0.244568 0.708471 -0.866537
own -0.553926 0.344329 0.091352 -0.003218 -0.472408 0.189966 -0.138262 0.739638 -0.657501 0.229930 -0.687186 -0.101245 0.364989 0.001400 0.170087 -0.585595 -0.326957 -0.077885 0.642730 -0.208113 1.014839 -0.692735 0.015981 -0.672994 0.173702 0.368071 0.345663 -0.307226 0.412666 0.572777 -0.747007 -0.578931 -0.671614 -0.962011 0.366570 0.259835 0.044216 0.519697 0.804826 0.403122 0.375815 -0.451815 0.812446 0.072546 -0.348970 -0.561318 -0.733945 0.182537 -0.224758 -0.500126
off -0.279616 -0.241845 0.007448 -0.126331 -0.134371 0.157356 -0.398111 0.741244 -0.421157 0.277323 -0.562744 0.265316 0.588003 0.271432 0.352327 0.112487 -0.452986 -0.131429 0.299081 -0.782037 -0.033391 -0.377199 -0.152456 -0.491034 0.527055 -0.263312 0.445641 0.158235 0.149490 0.049475 0.050341 -0.236917 -0.003020 -0.210654 0.996431 0.092969 0.740734 0.442438 1.724324 0.167701 -0.013423 0.436456 0.414213 0.388952 0.137028 -0.522609 -0.334805 0.051346 0.124785 0.092818
right 0.118319 -0.073777 0.223610 -0.094934 -0.017609 0.465154 -0.065496 0.367240 -0.675184 0.367823 -0.651350 0.432507 0.362849 -0.421882 0.398423 -0.098206 0.217527 0.154807 1.060096 -0.665715 0.330392 -0.409424 -0.239909 -0.325212 -0.116954 -0.032254 0.597459 -0.243105 0.508633 0.306657 -0.527014 -0.550883 -0.806474 -0.422143 0.729923 0.170747 -0.278610 0.422237 0.817817 -0.041218 0.696967 0.010241 0.487016 0.087464 -0.520145 -0.532849 -0.479672 0.367041 -0.030034 -0.035024
fact 0.390315 -0.440104 -0.460289 0.054935 0.286783 0.690489 -0.022074 -0.237929 0.202809 -0.405558 -0.400793 0.165928 -0.080745 -0.817365 -0.172447 -0.214614 -0.080628 0.051611 0.534647 0.036171 -0.076366 -0.035626 0.070649 -0.594329 -0.180879 0.071684 0.643494 0.044273 0.693264 0.330504 -0.091042 -0.227981 -0.420986 -0.067660 0.267533 -0.064998 -0.557853 -0.023399 0.447916 0.166389 0.326006 -0.202945 -0.495215 0.080203 -0.224726 -0.490058 -0.410476 0.099139 -0.479961 -0.464343
may -0.115257 0.101203 -0.669551 0.331776 0.041130 0.696027 -0.524077 -0.000443 -0.633793 -0.336911 -0.079123 -0.007462 0.313676 -0.263453 0.203239 -0.410877 -0.615652 0.176904 0.143034 0.106288 0.024681 -0.032676 0.202871 -0.455740 0.545996 -0.159505 0.517912 -0.364246 0.556096 0.061653 -0.107766 -0.255214 -0.251235 -0.679452 0.207278 -0.549295 -0.249253 0.561818 0.794646 -0.289380 0.289859 -0.104723 -0.897583 -0.355529 0.252308 0.182648 -0.654509 -0.048868 -0.443713 -0.891202
without 0.574150 -0.627766 0.197214 -0.600346 0.153227 0.622553 0.110886 0.115466 -1.256572 -0.277518 -0.208192 0.013667 0.631825 -0.325446 0.234578 -0.000190 0.337690 -0.033752 0.388476 0.005123 0.460623 -0.197424 -0.350887 -0.132849 0.153476 0.562789 0.918865 -0.047791 -0.068677 0.374496 -0.307293 -1.035755 -0.717011 -0.488373 0.504975 0.368230 -0.039398 0.102337 0.460922 0.176044 -0.066259 0.115527 0.002376 -0.155918 0.488152 -0.403660 -0.399980 -0.124045 -0.306594 -0.812501
wonderful 0.301745 -0.138851 0.003370 0.128860 -0.339483 -0.335346 -0.055900 -0.134853 0.522859 0.115053 -0.029403 0.267943 0.155726 0.278110 -0.372240 -0.469142 -0.114729 -0.460578 0.374958 0.306673 0.366799 0.030028 0.184251 -0.379276 0.453990 0.733158 0.587632 -0.300790 0.858431 0.190342 -0.350500 -0.546283 -0.885002 0.276927 -0.308554 -0.069896 -0.802170 -0.105384 0.116879 -0.090100 0.517838 0.150574 0.240343 0.133294 -0.249027 -0.707371 -0.411439 0.295264 -0.140000 0.156841
almost 0.084711 -0.582992 -0.212566 -0.381907 0.261671 0.055252 0.484323 -0.507288 -0.310975 -0.204923 -0.508949 0.279660 0.217108 -0.635256 -0.371867 0.440134 0.387794 -0.084448 0.648366 -0.320667 -0.266012 -0.309694 0.118418 -0.420734 0.071852 -0.163680 0.413062 -0.220056 0.557433 0.478862 -0.266556 0.161646 -0.233374 -0.119013 0.219821 -0.170732 -0.114978 -0.032551 1.085767 -0.478685 -0.403050 0.002060 -0.408405 -0.086933 0.495129 -0.201063 -0.045478 -0.042404 -0.231845 0.493467
feel -0.001139 -0.325843 -0.633142 0.114259 -0.152721 0.451234 -0.431154 -0.322237 0.306816 -0.064620 -0.832472 -0.069212 0.257052 -0.520541 -0.218570 -0.077927 -0.632379 0.225047 0.429321 0.391498 -0.251589 -0.375693 0.031691 -0.200030 0.387481 0.002481 0.485751 -0.704151 0.452614 -0.080675 0.197946 -0.266892 -0.109695 0.390840 0.065368 -0.726249 -0.993466 0.336996 0.608807 -0.623600 0.115603 0.040970 -0.193098 -0.369430 0.756941 -0.277397 -0.665990 0.232231 -0.543146 -0.063915
going 0.344784 -0.385586 -0.122427 0.220121 0.565821 0.320728 -0.287578 -0.313060 -0.626158 -0.009506 -0.343901 0.203819 0.095313 -0.265205 0.133900 -0.442004 -0.195498 0.059087 0.097421 -0.835315 0.221297 -0.085420 -0.331772 0.495734 0.373635 -0.502867 0.583024 -0.157572 0.461941 0.001085 -0.342243 -0.221260 -0.340076 0.240809 -0.077694 -0.377940 -0.552261 0.453381 0.969767 -0.095266 0.097983 0.101298 -0.417176 0.142310 -0.191800 -0.735535 -0.689527 -0.036225 -0.223289 0.255852
look 0.160049 -0.402430 -0.130066 0.453247 0.348934 0.416724 -0.383775 -0.337493 -0.133447 0.355662 -0.677613 -0.122949 0.655250 0.211818 -0.015862 0.039218 -0.351535 -0.174980 0.200243 -0.225423 -0.044094 -0.528253 -0.120142 0.067232 0.549421 -0.303683 -0.112612 -0.491899 0.685971 -0.136485 -0.205376 -0.141612 0.012882 0.226697 0.263458 -0.216748 -0.734815 0.547057 0.946007 -0.681467 -0.339498 0.301400 -0.312485 -0.199744 0.593616 -0.372707 -0.530694 0.016589 -0.444828 0.043677
few 0.400017 0.167505 -0.603416 0.015137 0.317653 -0.132879 0.458127 -0.497894 0.161946 -0.873829 -0.916962 0.414926 0.022282 -1.159007 -1.052458 0.195714 0.341327 -0.054556 0.170364 -0.053436 -0.032209 0.099620 0.085672 0.051559 -0.530499 -0.062237 -0.256168 -0.596751 0.777359 0.392792 -0.140710 -0.230028 0.085165 -0.796941 0.697052 -0.246797 -0.762500 0.693786 0.382851 0.554051 -0.112624 1.309480 0.044110 0.996234 -0.132994 -0.452918 -0.789746 -0.438700 0.337346 0.123891
music 0.393324 -0.692323 0.048927 -0.258548 0.141037 0.214196 0.324118 -0.481238 0.477586 0.292665 -0.359900 -0.012515 0.379675 0.253501 0.084467 0.360203 -0.380485 -0.841449 -0.000741 0.262839 -0.351578 0.581673 0.256409 -0.047181 0.323854 0.461485 0.274109 -0.687497 0.441154 0.462109 -0.434569 -0.425791 -0.388643 0.865067 -0.377579 -0.634773 -0.654294 0.117577 -0.070426 -0.278327 0.327557 0.253421 0.284786 0.129358 -0.197531 -0.563712 -0.425545 -0.265695 0.020064 -0.084003
performance -0.077009 -0.001064 0.125696 0.024165 -0.029520 -0.503301 0.428797 0.223801 0.025618 0.272822 -0.051813 0.189602 -0.483664 -0.386543 0.606663 -0.062866 0.143763 -0.549340 0.877380 0.210963 0.072472 -0.232619 -0.134266 -0.265886 0.879969 0.464322 -0.455997 0.242213 0.922896 0.364937 0.710886 -0.445492 -0.884473 0.255153 -0.281843 -0.333723 -0.786974 -0.681972 0.070784 -0.444538 -0.331131 0.396578 -0.606601 0.194323 0.611768 -0.666709 0.470786 -0.129554 -0.403351 -0.872517
played 0.103854 -0.278071 -0.010367 0.087551 0.224582 -0.691706 0.646679 0.875803 -0.398005 0.649743 0.958289 -0.168238 -0.806164 0.002498 -0.172982 -0.021689 -0.422204 -0.567154 1.001264 -0.492883 -0.552990 -0.041506 0.306030 -0.340739 0.065872 0.511111 0.656684 0.611845 1.200426 -0.040326 0.712459 -0.444943 -0.690174 -0.004750 0.064232 -0.025171 -0.389390 -0.173530 0.238847 0.259767 0.139179 0.002693 -0.378130 0.896333 0.114868 -0.510734 0.311273 0.499102 -0.309703 -0.230922
didnt 0.325859 -0.313385 -0.488189 0.523352 -0.211994 0.475974 -0.891551 0.181812 -0.172746 -0.007810 -0.313839 -0.248042 0.657757 -0.902418 -0.285736 0.231773 -0.691544 0.327549 -0.215668 -0.352062 -0.077916 -0.572751 -0.247977 -0.343290 -0.323937 -0.822806 0.381594 -0.187793 0.199394 -0.111562 0.612754 0.364707 0.406347 0.802790 0.154855 -0.574153 -0.355634 0.346077 1.106342 -0.484494 -0.462360 0.493155 -0.857006 0.118137 0.276525 -0.964366 -0.458832 0.449984 -0.923376 0.838509
family -0.358422 0.397530 -0.269068 0.157491 0.092429 0.015369 -0.381331 -0.139206 0.004236 0.511420 -0.616186 -0.746719 0.182189 -0.294173 -0.368773 -0.654899 -0.421018 0.060192 0.295397 0.235672 0.463903 -0.246752 0.380644 -0.454610 0.434666 0.605427 0.429074 0.010788 0.023077 0.265959 -0.773018 0.026471 -0.570438 -0.174020 0.315958 -0.240613 -0.631565 -0.088560 0.484268 -0.102805 0.113740 -0.189844 0.766892 0.112347 0.616560 -0.623398 -0.684747 0.209263 0.306427 0.119258
beautiful 0.757446 -0.311452 -0.688872 -0.030273 -0.020877 0.102017 0.516831 -0.284789 0.450213 -0.191983 0.370928 -0.102135 -0.555730 0.821203 -0.069319 -0.043205 -0.480821 -0.408774 0.785560 -0.184635 0.012819 0.162201 0.326642 0.253051 0.852508 0.328028 0.459500 -0.395750 0.744734 -0.372855 0.034715 -0.823136 -1.220234 0.215344 -0.418582 -0.278188 -0.378808 0.297138 -0.099175 -0.078154 -0.165626 0.388429 -0.055043 -0.328335 -0.352445 -0.525096 -0.287920 -0.170512 -0.161539 -0.031960
saw -0.157442 -0.021001 -0.117620 -0.426628 -0.390631 -0.222555 0.527359 0.321715 0.007303 0.541364 -0.662565 -0.513113 -0.493584 -1.229710 0.115326 0.122569 0.829375 -0.090011 0.239561 -0.591704 0.342153 0.002686 -0.275213 -1.125794 0.103484 -0.210382 0.275812 0.123473 -0.119318 0.212473 -0.291748 -0.103523 0.033671 0.821187 0.260621 0.107413 -0.898490 0.089928 0.518849 -0.880884 -0.071990 0.857636 -0.900786 -0.023024 -0.216992 -0.805950 -0.451182 0.126345 0.549406 0.232383
thing 0.336514 -0.313473 -0.292772 0.060712 -0.410055 0.433281 0.139631 -0.412709 0.100941 -0.148241 -0.814065 -0.230198 0.698445 -0.846972 0.125972 0.153266 -0.709054 -0.524445 0.217999 -0.315902 0.261686 -0.219820 -0.062398 -0.754243 0.122128 0.357125 0.618139 -0.323596 0.315035 -0.349121 -0.356697 -0.745705 -0.512544 0.371066 0.255387 -0.840335 -1.102169 -0.727405 0.262664 0.421985 -0.156323 -0.220027 -1.146180 0.744562 0.054783 -0.773701 0.132779 0.471599 -0.203803 -0.134541
why 0.760235 -0.162143 -0.627570 0.096828 -0.432873 0.652476 -0.348532 -0.402423 -0.184398 -0.420050 0.161266 0.509379 -0.054796 -0.862426 0.172313 0.310128 -0.387859 0.296168 0.198390 -0.729461 0.147972 -0.443503 -0.617032 -0.496111 -0.536810 -1.133691 1.040008 -0.323800 0.393270 0.023765 -0.095653 0.044308 -0.292118 0.189399 -0.023530 -0.188658 -0.478874 -0.381423 0.748873 -0.169878 -0.012611 -0.396307 -1.318471 -0.009181 -0.158657 -0.814539 -0.479889 0.559542 -0.654964 0.644850
bad -0.073789 -0.585318 -0.477075 0.215227 0.529500 -0.130478 -0.374174 -0.219856 -0.022791 0.102908 -0.447023 0.408486 0.404777 -0.384963 -0.551538 -0.432806 -0.452203 -0.677354 -0.057371 -0.269718 -0.170537 -0.604493 -0.090758 0.269097 -0.159927 -0.244535 0.187760 -1.333069 0.922771 -1.007841 -0.091479 -0.068578 0.134834 0.177388 0.562114 -0.103722 -1.284374 0.081740 0.913635 0.532007 0.058088 -0.289539 -0.772163 1.153749 -0.630352 -0.513622 -0.343699 0.302627 -0.211108 0.278145
especially 0.209363 0.204932 -0.197204 0.770557 -0.256795 0.092782 0.249199 -0.178673 -0.282169 0.641561 0.017069 -0.382073 -0.299072 -0.205489 -0.280245 0.274525 -0.473247 -0.427291 0.577714 -0.159878 -0.210859 0.591014 0.333905 -0.145829 0.350706 -0.012713 0.367538 -0.540654 1.216962 0.220138 0.111223 -0.056171 -0.267166 0.516772 -0.182662 -0.419044 -0.825962 0.201806 0.125048 -0.845440 0.451674 0.470611 -0.553984 0.274308 0.133478 0.086411 -0.210564 0.518124 0.101074 -0.109736
got -0.167229 -0.499910 -0.100380 0.324942 -0.279903 0.113722 -0.325642 0.339630 0.228135 -0.418389 -1.309111 0.319239 0.071469 -0.521546 0.054004 0.092311 0.178564 -0.193620 0.314065 -0.521229 0.679553 -0.265903 -0.269968 -0.098267 0.204479 -0.317107 0.089247 -0.211744 0.324440 -0.190025 0.290970 -0.348784 -0.457529 0.230345 0.394223 0.034967 -0.367944 0.652131 0.820840 -0.258951 -0.077091 0.238385 -0.367083 0.364393 -0.309738 -0.856274 -0.670351 0.003468 -0.391205 0.253241
im 0.128357 0.287849 -0.223078 -0.179403 -0.121330 0.333254 0.063112 -0.161902 -0.915305 -0.291985 -0.597816 0.704024 -0.116423 -0.636097 0.402362 -0.524362 0.125651 0.176762 -0.082418 -0.483273 0.619685 -0.279461 -0.107545 0.361631 0.394063 -1.005296 0.787142 -0.811738 0.810691 0.207904 0.054730 -0.704055 -0.609201 0.475177 0.033797 -0.660661 -0.624759 0.395231 0.658584 -0.102553 0.009725 -0.434721 -1.500296 -0.016395 -0.449367 0.309002 -0.125527 0.153535 -0.547030 -0.095069
series -0.012932 0.014695 -0.134856 -0.060879 -0.201040 -0.083141 0.102357 -0.374707 -0.255879 -0.133351 -1.079648 -0.217850 -0.239905 -0.352214 -0.039548 -0.056117 -0.101673 0.095941 -0.150396 -0.158995 0.568831 0.562017 0.283316 -0.657515 0.361294 0.213508 0.132266 0.116030 -0.175522 0.540796 -0.468338 -0.441460 0.540504 0.327329 0.035802 -0.660868 -0.856044 0.284715 0.121005 -0.512631 0.408384 0.921875 -0.347050 0.198409 0.489213 -0.793106 -0.717575 0.074993 0.644535 0.116126
since -0.056174 0.106858 -0.730841 0.078624 -0.510239 0.057780 0.608156 0.307083 -0.414105 -0.400032 -0.632211 -0.113175 -0.581025 -0.872172 0.021243 -0.153753 0.324257 -0.264308 0.778196 -0.550613 0.113338 0.352677 0.127947 -0.512727 -0.115879 0.054562 -0.039302 0.073972 0.389645 0.252412 0.208844 0.135720 -0.274358 -0.151610 0.481027 -0.251315 -0.244373 0.391637 0.308539 -0.173482 -0.232630 0.714508 -0.529819 0.279247 -0.620136 -0.739978 -0.455473 -0.300837 0.153329 -0.761243
doesnt -0.137270 -0.710707 -0.631897 -0.126053 0.114115 0.475208 -0.337918 -0.063326 -0.007852 -0.276490 -0.504975 0.313664 0.545813 -0.584190 0.283274 -0.536123 -0.050619 0.155805 0.246272 -0.385815 -0.000330 -0.934866 -0.325445 -0.528837 0.120991 -0.250800 0.079320 0.089533 -0.243227 0.018272 -0.078995 0.080967 0.231669 0.112905 -0.232636 -0.445155 -0.374811 0.406357 1.031913 -0.283265 -0.558327 -0.266310 -0.481661 -0.359590 0.167980 -0.591909 -0.707155 0.343061 -0.554434 0.015452
done -0.289728 -0.481729 -0.647757 0.453334 0.022924 -0.275564 -0.293514 0.593174 -0.374451 -0.308339 -0.636320 0.293138 -0.316272 -0.085803 -0.203650 0.334477 -0.337601 -0.500564 0.674582 -0.196870 0.029402 0.712588 -0.153410 -0.474687 0.607748 0.222362 0.141319 0.061809 0.410873 0.140103 1.060924 -0.419762 -0.346823 0.067478 0.215144 -0.279150 -0.790171 0.693811 0.337442 -0.320742 0.005249 -0.222893 -1.098145 0.657983 -0.071687 -0.875015 -0.463933 -0.361571 -0.292441 -0.623894
seems -0.205760 -0.998300 -0.778208 -0.428307 0.357076 0.288405 0.166605 -0.174173 0.009239 -0.117690 0.243793 -0.119116 0.019948 0.064198 -0.217775 0.333961 -0.166183 -0.568405 0.266365 -0.379861 0.009382 -0.492299 0.364228 -0.292746 0.336128 0.098279 -0.047076 -0.069163 0.453002 0.169152 -0.186443 -0.279564 -0.614035 -0.029723 -0.058581 -0.084603 -0.478454 0.452061 0.870222 -0.026312 -0.596154 -0.359448 -0.465434 0.176419 0.241711 -0.177590 -0.217765 0.359672 -0.680286 0.154838
funny 0.368064 -0.395307 0.140125 0.174611 0.288864 0.293456 0.218159 -0.449336 0.319955 0.191254 -0.157248 0.643202 0.414651 0.201840 -0.286639 0.282740 0.396320 -0.782882 0.204135 -0.364315 -0.136142 -0.126442 0.316265 0.157016 0.446775 -0.260627 -0.094495 -1.072705 1.178983 0.428146 -0.207511 -0.561867 -1.037161 0.205067 0.184127 -0.504079 -0.966401 0.592312 0.408268 -0.250673 -0.025678 0.165010 -0.266189 -0.056694 -0.243849 0.061757 -0.384425 -0.093632 -0.237345 -0.068196
original 0.452825 -0.201926 -0.153015 -0.143798 0.180367 -0.173815 0.473630 -0.596628 -0.419623 -0.518809 -0.770562 -0.393037 -0.723842 -0.210545 0.132029 -0.460266 -0.195346 0.222615 -0.207805 -0.440370 0.353553 0.448162 0.588992 -0.207010 0.449300 0.539078 -0.016907 0.023452 0.667736 0.764775 0.004044 -0.685231 0.045879 0.030669 -0.035807 -0.749600 -1.036760 0.083369 -0.154842 -0.112671 0.678376 0.163694 -0.412864 0.186170 0.034140 -0.881180 0.040035 -0.470859 0.361964 -0.193375
cant -0.070615 -0.375874 0.057978 0.103775 -0.150644 0.630220 -0.470947 -0.255653 -0.615345 0.445354 0.171724 0.402241 0.621265 -0.942838 0.442165 -0.269942 -0.485824 0.287742 -0.249471 -0.464969 -0.098019 -0.611392 -0.036597 -0.414066 -0.524699 -1.141131 0.897275 -0.500856 0.355336 -0.083003 -0.066267 0.442802 0.848864 0.735579 -0.150392 -0.655760 -0.071561 0.429024 1.155154 -0.296218 -0.145560 0.268903 -0.791328 -0.129240 -0.101400 -0.347022 -0.716594 0.866374 -0.701595 0.595387
